 Month    Low     2      3      4      5      6      7      8      9    High
192701  -0.47   0.83   4.17   2.40  -0.31   2.47   2.17   0.64  -0.62   1.18
192702   8.46   3.95   7.53   8.39   5.16   5.08   4.95   4.63   6.02   5.46
192703  -6.02  -5.20  -2.25  -1.60  -1.63  -1.61   0.35  -1.40   0.37  -0.78
192704   3.32   0.26   0.04  -1.09  -0.27   0.39   1.17  -0.44   2.52   4.16
192705   1.19   3.21   5.40   5.68   7.50   9.41   6.42   7.79   7.90   8.68
192706  -6.75  -0.51  -2.16  -2.98  -2.60   0.85  -1.49  -0.80  -2.70  -2.36
192707   6.86   4.52   5.14   6.18   5.57   4.86   7.46   4.66   5.81   9.69
192708  -2.42   3.33  -0.75   0.14   1.26   0.79   1.78   0.53   0.35  -1.57
192709  -0.37   4.42   0.96   2.67   1.45   3.71   3.34   3.45   7.16   3.70
192710  -6.63  -4.49  -4.66  -4.66  -1.45  -3.07  -3.30  -1.10  -4.42  -4.51
192711  29.59   9.49   8.79   8.24   6.80   8.84   8.36   6.97   8.04   8.25
192712   4.12   0.49   1.96   4.25   5.57   2.93   1.75   1.50   4.68   4.90
192801   2.86   3.43   3.65   7.59   2.14   0.27   3.38   0.06   0.56   9.39
192802   0.37  -2.56  -4.46  -0.66  -1.37  -0.65  -2.86  -3.95  -3.28  -5.19
192803   7.15   5.62   8.58   4.02   5.82   7.68   6.28   7.21   7.65  11.77
192804   7.21   9.47  14.79  13.44   7.25  14.72   3.47   3.83   3.90   8.23
192805  14.10   0.55   3.61  -0.18   2.65   0.91   3.43   3.77   4.24   5.67
192806  -9.89  -6.53  -7.48  -5.75  -6.64  -4.12  -6.89  -7.69  -6.38  -7.11
192807  -2.27  -0.37  -1.04   0.20  -0.28   0.91   1.96  -0.42   1.29   1.57
192808   4.00   4.49   4.56   2.83   6.43   8.40   5.15   8.42   8.79   6.85
192809   4.66   6.71   3.17   1.76   3.32   5.69   5.57   5.36   6.22   8.15
192810  -0.85  -0.88   1.67  -0.07  -0.17   0.46   1.01   2.69   3.12   9.28
192811  10.01  12.01   8.85  10.68  10.49  13.56  14.90   8.96  12.09  19.17
192812  -5.60  -0.90   0.90  -0.83  -0.95   2.65   1.18   1.14   0.12  -0.58
192901   1.78   2.43   1.75   2.24   3.97   2.30   4.74   5.08   5.43   2.80
192902  -4.25   0.04   1.44   0.05  -1.16   0.83   1.78  -0.38   3.82   3.67
192903  -4.56  -2.77  -3.64  -2.07  -2.15  -3.26  -5.48  -2.39  -4.30   0.72
192904  -3.17   2.01   2.31  -0.22   0.73   1.40   2.94   1.85   2.22   3.09
192905 -13.14 -12.29  -6.86  -8.81  -5.36  -7.31  -6.92  -7.32 -10.00 -11.96
192906   3.79   5.51   3.83   6.30   4.64   7.49   7.57  10.70  14.88  13.11
192907   0.62  -2.24   2.03   0.34   2.64   4.62   1.41   3.16   3.61   1.58
192908  -3.04   0.36  -0.20  -0.24   1.09   3.34   7.53   7.47   7.00   5.76
192909  -7.02  -7.94  -6.08  -3.63  -4.21  -3.18  -4.09  -4.04  -2.37  -1.21
192910 -22.58 -22.22 -21.14 -20.54 -15.51 -16.21 -15.93 -19.14 -20.77 -27.28
192911 -10.95 -13.84 -12.01  -7.97 -11.96  -8.26 -11.00 -10.51 -13.81 -16.06
192912 -12.67 -10.39  -3.65  -1.92  -2.30  -1.80  -3.62   1.35   2.12   4.30
193001  24.48  21.22  14.16   9.50   9.11   6.91   8.06   6.06   4.98   4.44
193002   4.79   4.01   4.16   2.67   1.86   2.02   2.46   1.32   2.30   3.84
193003  25.03  12.83  10.81   7.89  11.27   7.60   6.69   7.19   6.40   6.92
193004  -4.83  -2.64  -9.73  -7.21  -4.91  -4.43  -6.73  -4.00  -0.10  -2.80
193005  -9.77  -7.50  -3.53  -3.88  -2.14  -4.06  -1.45  -2.52  -0.27  -2.43
193006 -23.92 -22.64 -21.89 -19.12 -18.94 -17.62 -13.83 -11.87 -14.96 -20.81
193007   5.82   3.65   4.20  -0.36   7.18   4.50   4.04   1.57   2.05   4.94
193008  -7.01  -2.98  -1.75  -3.37  -0.26  -2.31   0.36  -1.78   0.93   0.60
193009 -21.76 -20.60 -20.22 -16.07 -14.51 -14.05 -12.93 -11.60 -10.11  -9.87
193010 -10.79 -13.89 -12.69 -13.56  -9.82  -8.66  -5.69  -8.71  -7.01  -7.71
193011  -1.51   0.59  -3.98  -2.27  -3.08  -2.47  -3.67  -3.06  -1.15  -0.76
193012 -24.93 -18.15 -17.78 -14.93 -16.17 -10.42 -13.55  -8.69  -6.77  -5.59
193101  28.91  25.45  15.59  15.04  12.48  11.59  10.63   6.52   4.98  11.48
193102  25.11  26.08  17.53  19.63  18.15  15.83  11.97  10.21   7.56   7.20
193103 -11.07 -11.24  -7.94  -2.52  -7.62  -6.98  -9.26  -4.59  -3.45   1.96
193104 -22.98 -19.36 -19.53 -17.45 -15.22 -16.03 -14.50  -9.90 -10.50  -8.58
193105 -17.78 -19.40 -16.40 -14.76 -15.72 -14.47 -12.90 -11.94 -10.10  -8.40
193106  27.77  28.90  21.72  21.05  22.89  18.54  14.43  12.14   9.63   8.54
193107 -11.24 -10.63 -10.26 -10.36  -8.54  -5.40  -5.19  -1.82  -3.38  -2.78
193108   1.02  -4.30  -0.69  -3.87  -3.48  -1.01  -1.55  -3.23  -0.19  -0.67
193109 -33.73 -38.25 -36.73 -30.00 -33.33 -27.77 -31.04 -29.54 -25.60 -25.86
193110   6.18  11.46  12.94  13.05   6.63   6.89  13.14   6.22  14.46  13.98
193111 -14.23 -13.73 -11.81 -11.15  -8.29  -7.16  -6.97  -9.09  -5.22  -3.86
193112 -26.54 -25.35 -23.67 -20.05 -19.88 -19.16 -15.83 -12.27 -13.56  -9.41
193201  30.45   9.35   8.40   7.47  13.03   8.02   1.57   1.26   2.42   3.06
193202  -1.11   1.39   1.46  -2.99   1.78   4.24   3.41   4.71   4.97   2.53
193203 -20.40 -16.93 -13.61 -12.87 -10.67 -14.07 -11.24  -9.47  -8.27  -4.64
193204 -22.11 -22.12 -17.87 -19.84 -20.35 -18.71 -18.17 -16.24 -15.23 -10.77
193205 -22.22 -22.92 -20.23 -22.12 -22.03 -19.68 -19.31 -18.83 -20.15 -16.90
193206   4.02   6.14   4.32   6.74   4.01   2.90  -1.31   1.82   7.22   4.95
193207  69.19  73.49  53.21  65.58  43.79  38.44  28.68  30.35  19.30  13.02
193208 113.98 112.13  74.46  76.54  75.69  62.38  46.86  35.88  37.56  30.82
193209 -10.93  -2.24  -8.91  -7.58  -7.57  -1.40  -7.12  -7.47  -4.58  -2.71
193210 -15.52 -15.68 -19.74 -17.14 -15.44 -16.06 -15.26 -15.53 -17.82 -18.61
193211 -10.23  -7.18   0.51 -10.17  -7.35  -6.60  -7.78  -4.25  -7.09  -7.94
193212  -9.62  -6.60  -5.10  -4.11  -4.45  -3.47  -2.67  -1.05   0.59  -0.25
193301   2.11   4.48   7.61   6.03   1.63   4.34   4.01   4.02   4.81  -3.18
193302 -17.60 -16.45 -19.68 -20.06 -14.82 -16.89 -15.40 -13.25 -12.69 -11.60
193303   6.55  12.15  10.66   6.18  12.13  15.41  10.42   7.52  11.75  12.14
193304  57.46  58.83  54.10  59.54  43.52  53.47  47.11  56.49  42.87  44.75
193305  80.57  70.97  71.13  66.47  50.54  50.37  62.39  57.21  37.46  56.60
193306  31.75  26.23  25.75  24.99  15.08  21.81  19.72  19.54  27.50  15.55
193307  -8.71 -11.44  -8.41 -10.50  -9.91  -8.50 -11.63  -7.16  -9.74  -9.35
193308   4.84   3.53  12.37  11.82  13.54  15.35  13.81  13.69  12.57  10.65
193309 -21.30 -17.24 -16.81 -15.64 -14.33  -8.78 -15.27 -13.87 -13.61 -15.13
193310  -9.46 -10.00 -11.38 -10.49 -12.77 -10.37 -10.40 -12.59 -10.66 -10.83
193311   1.07   2.03   7.36  10.32   7.03   6.61   9.44  11.13   4.80   6.86
193312  -1.61  -1.49   3.06   3.14   2.56   1.15   3.16   4.11   2.49   2.91
193401  42.69  38.57  34.02  30.72  32.14  29.03  26.40  26.35  34.34  27.47
193402   1.03   0.58   1.04   1.75   1.01   0.59   0.67  -0.21   0.46   3.86
193403  -1.21   0.15   2.96  -0.24  -0.39  -0.80   2.23   1.23   0.59   1.84
193404   1.46   0.74   2.03   1.61  -0.22   1.47  -2.46  -0.43  -0.76  -4.02
193405  -8.75  -8.90  -9.33  -9.15 -11.03 -12.53 -11.72 -11.98 -13.42 -12.38
193406  -2.02  -0.10   0.01   0.57   0.90   0.34   1.57   2.72  -1.96  -0.20
193407 -22.80 -22.94 -22.69 -20.35 -19.16 -18.17 -18.99 -12.32 -13.44 -17.85
193408   6.36  11.57  12.78  10.00   8.08   8.98   9.56   8.87  11.00  11.90
193409  -1.76  -2.86  -2.34  -1.07  -1.89  -0.59  -0.87   1.21  -0.74  -1.01
193410  -5.85  -6.32  -5.73  -3.41  -3.83  -1.22   0.09   3.03   1.98   1.95
193411  12.96  11.37  12.06  12.91  10.96  13.42  13.62  16.21  14.73  13.52
193412   2.04  -3.00   0.78  -0.01   1.24   1.03  -0.15   2.09   4.30   6.70
193501  -3.71  -4.02  -4.58  -2.51  -2.02  -4.78  -2.86  -2.77  -3.40  -2.31
193502 -18.66 -12.19 -10.53  -7.03  -7.62  -2.21  -0.74  -0.28   1.54   1.11
193503 -11.24 -10.66  -7.79  -9.75  -6.18  -8.27  -5.89  -3.58  -4.97  -4.82
193504   9.31  18.05   9.80  10.62  10.87  10.05   6.50   7.04   9.07   5.58
193505   4.68   2.25   3.53   2.40   3.38   2.67   0.99   0.49   1.78   2.72
193506  -2.42   2.17   3.31   2.78   5.19   6.83   5.14   6.36   5.76   7.04
193507  13.60  15.62  15.52  12.25   9.95   5.01  12.10   8.46   8.90   9.03
193508  25.50  16.04  13.07   5.11   4.11   4.01   3.60   4.40   2.77   6.00
193509  -9.70   0.79   1.29   1.46   3.04   4.51   2.00   4.49   5.64   9.64
193510   8.25   9.34   5.01   7.71   8.45   7.01   9.04   9.25   8.99  11.09
193511  40.58  24.35  13.49   9.57  15.09   8.64   6.72   9.01   9.12  10.69
193512  -1.23   3.31   7.25   5.62   4.72   4.12   9.94   6.33   8.37  10.48
193601  25.02  16.62  16.64  11.62  12.88  10.79  14.47  15.14  17.27  11.35
193602   1.48   2.35   1.85   2.91   5.88   7.46   5.42   8.12   5.17   2.75
193603   0.51  -1.44   1.64   0.17  -1.02   0.72   1.30  -0.70   2.48   4.35
193604  -5.57  -4.22 -10.96 -11.88 -12.89 -13.91 -16.57 -14.18 -15.95 -18.48
193605   2.48   2.73   5.18   3.69   4.38   5.29   7.40   6.12   6.35   8.69
193606  -1.08   0.95  -0.38  -0.23   1.07   1.19   0.53  -1.08   2.06  -3.10
193607   2.95   5.74   5.50   9.50   8.43   7.64   9.99   8.62  10.35   9.82
193608   0.48   0.48   2.53   2.98   4.26   3.18  -0.10   3.85   4.09   0.12
193609   5.80   1.09   3.23   3.08   2.44   4.90   1.31   3.62   2.39   4.94
193610   6.48   5.86   4.63   6.93   4.34   7.22  10.09   7.14   6.40   7.01
193611   8.62  10.34   6.30   9.49   8.28   7.78  10.55  11.09  10.67   8.62
193612   1.00   2.25   1.91   5.88   1.54   2.44   1.62   1.71   6.36   2.38
193701   7.30   9.07   6.85   9.30   7.44  10.23   4.98   7.01   6.88   9.91
193702   0.99   2.46   1.01   4.29   1.87   2.06   2.50   1.03   4.06   6.62
193703  -3.61   1.21   0.40  -0.97  -0.94   0.27   1.21   0.87  -0.69   2.46
193704 -12.24  -9.69  -8.89  -7.84  -9.67  -8.66  -8.76 -10.27 -11.48 -14.95
193705  -4.70  -2.11  -2.80  -0.46  -2.82  -3.02  -2.35  -2.06  -1.43  -2.10
193706 -10.80  -7.77  -7.31  -7.16  -5.26  -6.79  -7.10  -7.94  -6.66 -10.07
193707  14.60   9.38   9.14   9.01   9.66   9.37   9.29   9.28   9.89  11.27
193708  -7.97  -5.09  -5.75  -4.72  -4.50  -3.35  -4.94  -5.54  -6.49  -5.94
193709 -20.85 -17.82 -15.54 -16.03 -17.47 -17.40 -19.42 -21.08 -23.10 -25.57
193710  -8.14  -9.53  -8.90 -11.26 -10.03  -9.36  -9.05 -10.87 -10.87 -12.62
193711 -13.36 -11.86 -10.07 -10.96 -10.32  -9.71 -10.40  -9.69  -9.54 -12.35
193712 -18.40 -11.31 -11.45 -14.60  -8.37  -8.35  -7.77  -7.19  -8.76  -7.19
193801  10.55   6.81   3.30   4.96   1.13   3.76   3.52   2.68   3.33   1.48
193802   6.03   6.19   4.08   8.69   7.84   7.51   6.46   5.57   6.10   3.59
193803 -39.00 -33.95 -32.68 -31.98 -31.66 -29.01 -27.58 -25.02 -21.11 -16.42
193804  23.62  29.25  23.83  24.87  22.13  18.89  17.34  17.94  13.92  13.43
193805  -8.58 -10.60 -10.14  -8.63 -10.02  -7.78  -5.25  -6.29  -3.81   0.43
193806  36.99  42.10  37.72  38.33  38.24  34.91  29.45  25.38  17.50  10.37
193807  23.09  11.84  15.06  12.80  11.97  11.78  10.81  10.52   7.82   6.06
193808 -12.52  -8.70  -7.76  -8.02  -8.12  -5.27  -5.45  -4.05  -3.51  -0.53
193809  -3.45  -3.40  -2.66  -0.72  -2.55  -1.55  -0.65  -0.34   0.26   0.14
193810  18.37  17.76  18.87  17.79  12.72  14.38  10.44   9.64  10.39  12.89
193811 -14.16  -3.04  -5.48  -5.87  -4.88  -1.80  -0.83  -1.87  -1.86   0.54
193812   1.71   1.79   0.98   2.75   3.06   2.70   4.53   3.96   5.16   6.52
193901  -4.59  -7.59  -6.69  -7.11  -7.26  -7.38  -8.66  -7.92  -9.91  -9.34
193902   1.66   2.70   3.66   4.20   3.84   3.65   4.73   5.05   5.60   6.77
193903 -18.09 -16.68 -16.87 -15.09 -17.43 -18.62 -16.04 -15.30 -18.95 -20.62
193904  -3.23  -1.24  -1.40   0.72   0.84  -1.14   1.12   0.46   0.99   3.74
193905   5.82   6.10   8.95   8.13   7.53   9.37   8.14   8.01  10.44  12.54
193906  -9.05  -9.05 -11.11  -7.66  -7.97  -7.55  -8.33  -7.25  -8.12  -8.39
193907  13.44  14.66  14.29  16.33  13.73  12.78  11.59  12.71  10.81  15.61
193908 -12.26 -13.31 -11.59 -12.44 -11.64 -11.09  -9.16  -9.79  -6.72  -8.09
193909 104.78  58.43  52.50  47.77  32.61  29.10  27.26  16.83  19.27  15.08
193910  -8.58  -2.33  -3.14  -2.90  -1.15   0.65   0.74   1.89   2.49   3.95
193911  -7.51 -10.41  -6.47  -7.51  -7.67  -7.83  -7.23 -10.10  -6.98 -10.23
193912  -1.78  -0.36  -1.33   2.33   2.46   1.92   1.49   3.03   2.29   5.30
194001  -0.72  -4.47  -1.69  -3.36  -4.84  -1.14  -0.17  -1.35  -1.26  -0.59
194002   0.23   1.66   3.30   4.11   1.83   2.63   3.41   2.94   3.50   6.69
194003   3.21   1.87   2.37   3.91   1.76   3.09   2.12   3.39   2.03   3.65
194004  -6.88   1.11  -0.43   1.46   0.35   0.41   0.76   2.50   4.59   8.14
194005 -25.84 -29.76 -27.84 -26.70 -25.53 -25.57 -25.15 -25.65 -26.98 -30.15
194006   8.32   9.05   6.22   7.19   4.59   7.39   6.89   5.31   6.09   6.39
194007   2.41   3.77   3.40   4.28   2.93   3.51   3.05   3.98   4.99   5.11
194008   1.96   3.26   2.59   1.61   2.64   2.77   1.25   2.29   2.23   1.29
194009   2.70   3.70   4.60   3.68   3.78   4.37   4.60   4.18   3.75   2.64
194010   1.78   9.75   7.99   6.97   5.11   3.65   3.53   3.65   2.15   4.87
194011  -4.71  -2.26   2.23   0.54   0.32   0.51  -0.98   0.09   0.91   0.94
194012 -10.35  -4.54  -1.86  -1.04  -2.17  -0.63  -0.51   0.03   0.50   2.67
194101  18.14   0.70   0.12  -2.09  -2.38  -4.35  -4.19  -3.86  -3.37  -4.34
194102  -2.03  -3.57  -2.07  -2.20  -2.11  -0.63  -1.28  -3.59  -0.69  -1.50
194103  -0.18   2.14   1.23   1.57   1.51   0.04   1.00   2.57   2.53   0.77
194104  -9.92  -7.36  -6.87  -6.80  -5.73  -4.82  -5.63  -2.13  -4.21  -4.63
194105  -1.28   0.03   1.14   0.62   1.94   1.22   1.11   1.85   1.66   2.29
194106   7.62   6.90   6.90   5.61   5.68   6.85   5.80   5.93   7.71   7.96
194107  25.79  15.48  13.57  12.11   9.83  10.59   9.57  10.78   9.92  12.22
194108  -2.39  -3.54  -1.12  -1.15  -0.84   0.41   2.20   0.04   0.13  -0.61
194109  -3.43  -1.13  -0.10  -2.46  -1.04  -3.03  -2.26  -1.65  -1.95  -3.06
194110 -13.31  -6.95  -5.72  -7.04  -6.07  -7.18  -3.73  -5.08  -3.79  -3.31
194111  -9.87  -3.87  -5.13  -4.39  -3.37  -2.95  -0.76  -1.36  -1.08  -0.77
194112 -15.59 -10.04  -7.30  -6.63  -5.30  -7.32  -6.49  -6.54  -7.95  -9.19
194201  32.69  19.83   8.57  10.55   7.88   7.31   6.20   7.02  11.22  18.13
194202   0.84  -0.50  -2.11  -2.88  -1.42  -2.55  -1.13  -1.63  -1.16  -1.58
194203  -4.67  -2.87  -5.63  -5.95  -5.17  -6.24  -4.13  -4.02  -5.79  -7.01
194204  -3.56  -4.88  -3.58  -4.78  -5.68  -5.49  -5.75  -4.35  -5.72  -2.10
194205   5.95   5.41   3.80   5.63   1.46   2.15   1.49   0.23   1.78   0.27
194206   2.50   3.88   2.98   2.60   2.87   2.53   3.15   1.40   1.70   0.91
194207   4.08   3.58   4.59   4.50   3.12   5.86   4.65   3.63   4.61   7.66
194208   4.01   2.73   3.39   3.21   1.47   3.30   2.02   2.96   1.75   4.00
194209  10.75   3.83   4.03   2.69   2.79   3.63   3.67   3.49   3.79   9.22
194210  21.38  13.52   9.83   9.63   7.92   8.21   7.15   8.15   7.13   7.49
194211  -2.78  -0.79  -2.05   0.42  -1.91  -1.04  -1.14   0.58  -3.08  -4.38
194212   1.98   4.15   2.47   1.96   3.31   4.47   5.66   4.93   3.03   3.34
194301  15.68  13.43  13.15  10.72  14.90  13.89  13.67  16.88  25.02  32.44
194302  32.33  12.03   9.95  16.92  10.73  14.58   8.83   8.57   9.19  10.49
194303  11.40   9.37   8.90  10.32   9.31   8.38  11.01  13.84  14.68  14.12
194304   0.31   0.12  -0.46   2.25   1.73   0.66   6.21   6.63   6.39  11.70
194305   4.32   5.91   6.44   6.15   4.86   8.26   8.74  10.26  12.46  16.93
194306   1.09   1.32   1.75   2.78   1.53   1.99   2.36   1.83   0.11  -3.34
194307  -2.80  -3.76  -4.60  -4.96  -6.00  -5.37  -7.19  -7.20 -10.17 -12.87
194308  -0.86   0.63  -0.38   0.33   0.14   2.55   0.97   0.79   1.48  -2.49
194309   1.14   2.72   2.62   2.83   2.76   4.30   4.70   3.78   5.00   5.49
194310   1.26  -0.55  -0.49  -0.42  -0.52  -0.41  -1.21   0.24   0.64  -1.95
194311 -10.23  -7.22  -5.91  -7.74  -7.39  -7.21  -6.91 -10.82 -11.46 -14.85
194312   7.17   7.65   7.15   7.25   9.10   8.32  10.80  13.72  12.94  14.46
194401   3.97   3.10   3.65   3.81   4.15   3.02   5.57   6.00   3.94   7.84
194402   1.17   0.84   0.87   1.77   1.62   1.14   1.02   1.03   2.80   2.31
194403   3.65   2.44   2.93   2.77   3.10   4.21   3.27   4.52   7.67   6.56
194404  -4.97  -3.56  -2.70  -2.61  -3.04  -2.53  -2.23  -2.57  -2.88  -2.53
194405   4.35   6.02   5.70   6.60   5.49   7.35   7.14   7.52   8.16   7.73
194406  22.24  16.47   9.26   9.52   9.53   9.16   6.47   7.14   9.01   5.68
194407  -4.43   1.01  -2.08  -1.36  -0.56  -1.11  -1.22  -0.51  -1.48  -1.90
194408   0.63   1.09   1.77   2.68   1.43   2.06   3.59   5.28   5.38   7.39
194409   0.49  -0.43   1.09   0.08  -0.49   0.10   0.63  -0.40  -0.30  -1.15
194410   0.06  -0.32   0.49  -0.02   0.68   1.69  -0.24  -0.08  -0.83  -0.74
194411   1.55   2.21   2.04   1.35   2.60   2.77   2.19   2.67   2.59   3.32
194412   5.73   4.39   6.69   5.24   6.28   7.57   7.73   7.76  10.64   7.89
194501   4.44   3.64   4.08   3.79   3.19   3.55   2.92   4.16   6.28   8.11
194502   8.55   6.42   6.61   7.21   8.44   8.78   8.21  10.72   8.74  11.36
194503  -3.77  -3.29  -4.55  -4.79  -6.14  -5.49  -5.57  -5.66  -8.06  -8.99
194504   7.13   6.85   7.34   7.13   9.71   9.06   9.54   8.95  11.33  12.52
194505   4.27   2.85   2.08   3.44   0.97   2.54   2.88   2.81   4.53   2.90
194506   2.40   1.41   2.45   1.17   2.89   1.65   3.25   5.27   7.01   8.59
194507  -3.61  -2.43  -3.04  -2.20  -2.99  -3.25  -2.93  -3.48  -4.71  -5.32
194508   6.33   7.17   6.42   7.81   7.52   7.98   8.16   6.57   5.38   3.37
194509   5.96   5.98   5.16   6.88   6.54   5.99   6.55   7.65   6.90   5.89
194510   7.30   5.40   5.97   7.57   6.83   7.58   5.41   5.97   6.93   6.71
194511   8.35   6.12   7.71   8.92   7.71   9.77  10.33  11.58  13.41  10.52
194512   1.37   2.26   1.08   2.51   1.27   3.89   2.32   3.46   2.68   3.42
194601   7.74   5.36   7.91   8.40  10.40  11.17  10.08   8.49  10.96  14.95
194602  -4.57  -6.29  -5.72  -6.96  -5.37  -6.49  -8.46  -6.94  -7.26  -7.89
194603   5.18   4.83   5.61   5.01   4.79   6.72   6.88   7.99   6.67   5.18
194604   2.94   3.50   3.38   5.02   6.54   5.73   5.58   6.54   7.29   6.98
194605   6.29   5.88   4.36   7.25   6.06   5.80   6.10   5.78   4.74   3.31
194606  -4.38  -3.24  -4.30  -3.35  -5.53  -4.86  -5.48  -6.10  -5.70  -6.33
194607  -5.19  -3.95  -3.39  -4.14  -4.66  -4.18  -4.13  -3.92  -4.23  -3.55
194608  -7.84  -6.84  -7.28  -5.95  -7.09  -7.12  -8.13  -8.13  -7.88  -8.27
194609 -17.06 -14.05 -13.72 -12.89 -12.21 -12.80 -12.25 -12.80 -12.35 -14.12
194610  -2.22  -1.20  -1.68  -1.86  -0.34  -0.46  -0.74  -0.39  -1.67  -1.70
194611  -2.69  -1.10   0.77   0.36  -0.24   1.30   0.71   0.28  -0.48  -1.13
194612   2.30   3.70   7.26   5.13   4.86   4.78   4.89   2.89   4.81   7.26
194701   7.87   7.16   4.46   4.83   2.17   2.73   0.75   1.18  -0.54  -0.20
194702  -0.06  -0.84  -1.68  -0.38  -0.54  -0.27  -0.24  -0.70  -0.82  -0.50
194703  -7.20  -4.24  -3.80  -2.84  -2.52  -2.40  -2.07  -1.30  -1.83  -1.30
194704 -14.45 -10.38  -9.74  -8.75  -7.28  -7.02  -6.42  -4.65  -6.41  -6.72
194705  -7.39  -5.94  -5.25  -3.70  -2.41  -3.32  -3.47  -2.63  -2.34  -2.07
194706   7.79   5.81   5.54   7.05   4.75   5.80   6.53   5.34   4.50   4.69
194707   8.13   8.37   7.14   6.50   6.49   5.49   4.62   4.98   4.74   5.79
194708  -4.13  -3.31  -3.55  -1.32  -1.74  -1.64  -0.85   0.19  -0.61  -0.64
194709   1.90  -1.26   0.17   0.54   0.51   0.04   0.85   0.20   0.90   2.69
194710   2.68   4.37   3.97   3.99   2.37   3.97   2.41   3.37   2.49   4.55
194711  -7.14  -4.61  -4.66  -3.60  -2.60  -3.45  -1.62  -1.48  -0.86   0.06
194712  -1.40   1.21  -0.21   2.90   2.49   1.17   2.89   2.81   5.36   5.64
194801   2.77  -0.10   0.69   0.10  -3.20  -3.01  -2.81  -3.31  -3.77  -4.16
194802  -9.48  -6.86  -6.25  -5.92  -4.99  -4.94  -4.53  -5.43  -6.01  -5.56
194803  12.61  10.07   7.64  10.01   8.48   7.34   8.17  10.07   9.84  11.99
194804   0.36   2.38   3.89   2.84   4.54   2.66   3.85   4.97   5.33   7.22
194805  10.66   9.70   6.43   8.05  10.06   7.62   7.54   9.34   9.98   8.69
194806  -5.71  -2.65  -2.55  -2.31  -1.54  -1.38  -1.16   0.25   0.11   2.47
194807  -5.33  -5.91  -4.10  -3.91  -5.11  -5.61  -5.91  -5.26  -6.66  -5.22
194808  -1.70  -0.53   0.39  -0.15   0.15  -0.89   0.25   0.18   0.19   0.09
194809  -7.41  -4.23  -3.16  -3.09  -3.14  -3.70  -3.91  -4.43  -4.44  -5.37
194810   4.11   4.67   5.11   4.58   4.10   5.11   6.25   6.36   5.93   6.78
194811 -16.05 -11.23 -10.26  -8.52  -8.83  -9.28  -9.39 -10.38 -10.02 -12.80
194812  -2.51  -0.18  -0.93   0.28   1.35   1.60   1.58   3.11   3.84   4.55
194901   6.02   3.14   1.74   2.61   2.06   1.10   1.41   0.59   0.46  -0.16
194902  -6.03  -4.40  -4.39  -3.80  -3.00  -4.60  -2.54  -3.72  -3.90  -4.33
194903   7.78   6.90   6.93   4.97   6.27   4.10   5.45   5.15   4.94   7.16
194904  -5.53  -4.90  -3.99  -3.81  -2.69  -3.05  -3.35  -1.77  -1.28  -1.28
194905  -8.65  -6.34  -5.09  -4.59  -4.28  -3.29  -2.23  -3.85  -1.87  -2.53
194906  -0.35  -0.57  -0.45  -0.71  -1.46  -1.93  -1.20   0.25  -1.15  -0.09
194907   7.32   7.22   6.89   6.96   6.55   5.91   5.71   5.05   5.41   5.69
194908   1.99   2.68   1.27   2.47   3.06   3.01   2.62   1.99   3.44   2.37
194909   7.30   5.43   4.28   3.74   3.45   2.80   3.73   3.32   3.75   5.14
194910   6.83   3.59   4.38   4.13   2.58   3.52   3.78   2.62   3.29   4.48
194911  -3.73   0.84   1.12   0.81   0.62   1.64   1.63   1.00   2.76   2.16
194912   8.93   9.08   7.47   7.95   5.39   5.97   6.05   6.61   6.90   6.65
195001   7.48   6.22   5.10   3.88   2.35   3.26   2.27   2.80   2.96   4.03
195002   0.47   2.08   1.53   0.34   0.83   1.72   1.36   1.65   4.01   2.57
195003  -2.40  -0.81  -0.05  -0.11  -0.66  -0.15  -0.50   0.91  -0.34   2.03
195004   7.51   6.91   4.38   4.17   5.49   4.43   2.84   4.39   4.12   4.16
195005   3.66   4.02   1.89   2.39   4.06   2.64   4.23   3.45   3.52   3.25
195006  -6.71  -6.16  -7.08  -5.91  -7.21  -7.28  -7.62  -8.83  -9.54  -8.83
195007   5.72   6.05   2.45   5.37   5.70   5.45   6.27   7.08   6.26   1.87
195008   4.48   3.95   4.53   5.48   3.60   4.23   4.57   5.99   6.43   7.17
195009   6.96   5.19   6.47   5.03   4.55   5.17   5.26   5.56   5.19   5.54
195010  -1.32  -2.25  -0.22  -0.01  -0.42  -0.82  -0.01   0.07   0.25   0.24
195011   0.33   0.37   1.32   2.55   3.56   5.91   2.72   5.12   4.41   6.55
195012   6.00   5.33   6.57   7.32   9.08   7.94   9.67   9.80  10.64  13.30
195101   8.51   6.72   7.67   6.07   7.63   6.84   7.82   7.11   8.61   8.83
195102   2.37   2.37   1.93   0.73   1.40   0.95   0.28   0.29   0.81   0.85
195103  -0.81  -2.89  -1.83  -2.45  -2.88  -3.30  -4.21  -4.84  -4.54  -6.32
195104   0.90   1.26   1.69   2.97   3.41   4.44   6.24   6.47   6.00   6.94
195105  -2.51  -2.26  -1.92  -2.48  -3.13  -1.70  -2.84  -1.95  -2.48  -3.61
195106  -3.50  -2.64  -2.63  -3.55  -4.29  -4.51  -5.53  -5.39  -5.54  -8.04
195107   2.32   3.88   3.76   4.60   5.20   5.45   7.34   9.21  10.03  10.97
195108   5.89   4.27   4.11   3.30   4.55   5.25   5.19   4.71   5.50   4.57
195109   0.97   2.26   1.84   3.01   1.95   1.84   2.71   3.84   2.27   2.21
195110  -2.25  -2.31  -1.30  -1.62  -1.80  -3.77  -3.35  -2.64  -2.49  -2.74
195111  -0.44   0.48   0.14   0.95   0.83   0.80   1.51   1.19   1.50   0.70
195112   0.59   0.60   1.23   0.82   1.33   1.79   1.74   2.14   2.86   2.04
195201   1.11   0.35   1.26   2.49   1.86   1.86   0.91   2.71   1.89   2.42
195202  -3.25  -2.14  -1.93  -1.43  -1.49  -0.59  -1.50  -1.98  -2.69  -3.46
195203   1.53   2.38   2.29   2.72   2.18   3.06   2.70   3.27   3.88   4.82
195204  -5.91  -3.36  -3.52  -4.15  -3.45  -3.60  -3.77  -4.05  -5.32  -7.32
195205   1.75   1.36   2.37   1.98   2.04   2.75   2.96   2.63   3.23   2.74
195206   2.28   2.63   2.32   3.77   3.34   2.57   3.66   3.16   3.19   3.96
195207  -0.06   0.54   1.52   1.64   1.65   1.52   0.69   1.04   1.19   1.00
195208  -0.13  -0.37   0.02   0.51  -0.34  -0.35   0.65   0.10   0.00   0.05
195209  -3.37  -2.43  -2.00  -1.82  -1.55  -0.64  -0.35  -1.27  -0.52  -1.39
195210  -2.54  -2.89  -1.58  -0.87  -1.90  -0.80  -0.99   0.15  -0.54   0.62
195211   5.36   6.22   4.34   5.28   4.65   5.48   6.07   5.93   6.13   6.47
195212   0.81   1.12   1.31   1.78   3.34   2.68   2.94   3.53   2.37   2.65
195301   4.12   2.29   2.26   2.46   1.86   2.53   2.24   3.32   1.18   2.17
195302   1.57   0.95   0.87   0.44   1.29   1.43   0.79   1.71   1.12   2.11
195303  -1.34  -1.54  -0.77   0.15  -0.39  -1.13  -1.60  -0.79  -1.10  -2.44
195304  -4.16  -3.21  -2.42  -1.87  -2.07  -1.65  -2.01  -1.58  -2.32  -1.96
195305  -0.38  -0.28   0.14   0.95   0.64   0.47   0.61   1.37   1.13   1.56
195306  -5.06  -2.11  -3.23  -3.22  -3.67  -3.11  -2.24  -3.38  -2.60  -3.43
195307   0.69   1.94   1.59   1.66   1.81   2.48   2.09   1.86   1.14   1.98
195308  -7.12  -6.68  -5.73  -5.09  -3.57  -4.77  -4.35  -4.15  -4.48  -5.07
195309  -4.24  -2.84  -1.22  -0.68  -1.29  -0.55  -0.89  -0.31   0.67   0.40
195310   1.64   3.63   4.28   3.43   3.67   4.60   3.64   3.69   3.93   4.82
195311   1.28   1.25   1.46   0.89   2.95   1.99   2.70   3.15   2.76   3.40
195312  -7.26  -4.21  -3.62  -1.62  -1.29  -0.72   0.23   0.91   0.80   1.63
195401  13.17  10.18   8.80   7.61   7.23   6.40   5.14   4.17   4.20   4.09
195402  -0.10   0.19   1.90   0.56   0.99   1.17   2.03   1.73   2.36   2.24
195403   1.96   2.61   1.30   1.57   1.58   2.98   3.55   2.99   4.06   5.84
195404  -2.52  -0.71   0.17   1.50   1.45   2.96   3.33   1.86   3.99   4.31
195405   5.99   5.43   5.86   3.76   3.54   3.56   4.17   3.64   2.73   3.93
195406   0.25  -0.77   0.07   1.39   0.90   3.01   1.10   1.34   2.46   2.97
195407   9.62   7.81   7.19   6.76   6.80   5.75   6.38   7.77   6.37   7.94
195408  -0.07  -0.06  -0.76  -0.64  -0.50  -0.20  -1.99  -1.50  -2.16  -1.05
195409   3.90   3.73   3.37   3.79   3.88   4.46   4.61   5.35   4.89   5.95
195410  -2.00  -1.00  -0.87  -1.40  -0.70  -0.68  -0.88  -0.45   0.56   0.31
195411   9.37   8.15   8.12   7.46   7.65   8.37  10.49  10.23  10.68  10.34
195412  12.90  10.79   7.59   7.73   7.66   8.64   8.63   8.31   7.80   8.66
195501   1.22   0.30   1.23   1.30   0.66   0.91   2.05   0.43   2.15   4.03
195502   4.00   3.00   3.45   3.47   3.08   4.23   5.33   6.00   4.89   5.35
195503  -1.12   0.13   0.14  -0.16   0.07   0.32  -0.31  -0.88   1.53   1.45
195504   2.30   2.58   1.98   2.22   1.57   3.30   3.15   2.01   1.97   2.04
195505  -0.19   1.17   0.62   1.34   0.91   0.49   1.15   0.12   0.20   1.47
195506   2.20   3.05   2.50   3.22   3.49   3.79   4.75   3.93   3.87   4.63
195507   1.49   1.39   1.21   0.24   1.79   0.24   0.81   0.07   1.85  -1.21
195508  -0.91  -0.06  -0.12   0.53  -0.02   1.09   0.92   0.63   1.25   2.48
195509  -1.02  -0.23  -1.07  -1.14  -1.43  -0.88  -1.60  -0.01  -1.07   0.77
195510  -2.07  -2.02  -1.82  -1.54  -1.19  -0.53  -1.23  -2.07  -1.55  -2.66
195511   5.32   3.86   3.38   4.40   5.43   5.60   5.35   6.51   7.16   7.97
195512   2.52   2.62   2.38   1.92   2.49   1.54   1.29   3.32   2.37   1.95
195601  -1.10  -1.63  -1.42  -0.85  -1.99  -1.61  -3.20  -2.02  -2.41  -4.37
195602   2.85   2.63   1.86   3.21   2.97   3.01   3.00   3.39   5.19   5.28
195603   1.35   4.26   3.98   4.72   5.57   4.67   5.80   6.26   7.59   7.17
195604  -0.43  -0.34  -0.43  -1.25  -0.47   0.14   0.80   0.89   2.21   2.95
195605  -4.53  -3.88  -2.91  -3.49  -2.51  -3.73  -4.10  -5.46  -5.72  -3.70
195606   0.36   0.70   1.63   0.97   1.92   1.61   2.32   3.52   3.67   4.68
195607   1.10   3.37   3.23   2.44   4.00   5.18   4.12   4.76   4.87   6.14
195608  -1.86  -1.56  -1.75  -1.85  -1.20  -0.23  -1.40  -2.38  -3.10  -2.27
195609  -4.55  -2.75  -3.05  -2.82  -2.35  -3.44  -3.88  -3.77  -5.07  -3.97
195610  -1.13  -0.56  -0.52   0.56   0.97   0.74   1.22   0.57   1.73   3.53
195611  -2.36   0.04  -0.56  -0.33   0.41   0.85   1.12   1.83   1.72   3.02
195612   0.18   0.35   0.35   2.11   1.28   1.83   2.08   4.42   4.38   5.86
195701   4.49   1.73   1.29   0.15   0.55   0.40  -0.63  -0.89  -2.98  -1.27
195702  -4.33  -2.98  -1.41  -1.04  -1.45  -1.52  -2.11  -2.88  -2.21  -2.77
195703   1.22   1.50   2.63   1.96   2.94   3.03   2.20   2.32   1.65   2.87
195704   1.70   2.22   2.00   3.00   2.19   1.42   2.94   2.46   3.41   4.52
195705   2.14   2.97   1.61   1.44   1.79   2.50   2.07   1.05   3.05   2.99
195706  -0.25  -0.99  -1.29  -1.11  -0.74  -1.06  -0.95  -0.42  -1.51   0.91
195707  -0.48   0.49   1.07   1.26   0.64   1.14   0.56   1.16  -0.46  -0.78
195708  -7.98  -5.87  -4.65  -3.90  -3.65  -2.29  -3.91  -4.69  -5.49  -5.99
195709  -7.51  -7.12  -5.15  -4.72  -4.66  -4.64  -3.92  -3.59  -4.61  -6.65
195710 -11.03  -8.06  -6.77  -5.67  -4.60  -5.27  -4.87  -4.79  -5.93  -6.75
195711   2.98   0.47  -0.23   0.97   0.88   1.83   1.68   3.40   4.04   4.55
195712 -11.67  -8.64  -7.89  -7.24  -4.12  -3.57  -0.40  -1.40  -1.51  -0.66
195801  21.02  14.70  12.66  11.40  12.06   8.66   7.31   6.96   5.99   5.24
195802  -4.73  -3.26  -3.11  -2.18  -0.86  -0.75   0.39   0.22   1.44   1.74
195803   4.13   4.87   4.96   2.17   2.89   2.73   2.88   2.66   3.34   5.54
195804   4.01   2.72   2.17   2.10   2.47   3.71   2.25   2.62   4.56   4.64
195805   4.97   4.61   4.40   3.51   3.90   4.49   3.09   2.60   3.64   3.48
195806   6.96   3.39   2.74   4.02   2.97   1.85   2.35   2.87   1.61   3.52
195807   9.48   8.68   6.53   6.45   5.89   5.40   4.12   2.96   2.86   2.54
195808   1.62   3.59   2.55   2.76   3.35   3.74   3.89   1.99   2.23   4.41
195809   8.11   5.50   5.30   5.83   4.97   4.42   4.41   3.70   5.22   4.91
195810   2.31   0.93   2.13   1.24   3.48   2.85   3.85   3.77   4.67   7.44
195811   2.71   4.07   4.13   4.24   2.81   3.95   3.96   3.88   5.17   7.08
195812   4.08   4.60   4.64   3.16   4.30   3.00   4.37   3.09   3.56   3.95
195901   3.31   4.12   4.29   4.33   4.54   5.87   4.35   4.10   3.01   4.26
195902   2.39   1.52   1.00   1.44   2.56   1.95   4.11   3.68   3.99   5.46
195903   0.19   0.28   0.63   1.07   1.38   1.43   1.39   1.63   1.09   2.84
195904   0.44   1.41   1.21   1.36   1.31   2.51   3.81   5.13   4.17   5.15
195905   0.24   0.07   0.85  -0.25   1.83   0.67   2.14   0.87   0.84   0.69
195906  -2.10  -0.80  -0.07   0.36   0.66  -0.60   0.61   2.16   2.72   2.15
195907   3.21   2.82   2.40   3.23   2.23   2.29   3.31   4.03   4.81   2.32
195908  -3.09  -0.84   0.45  -0.26  -0.23  -0.59  -2.30  -2.16  -2.13  -3.19
195909  -4.24  -5.77  -4.46  -3.78  -4.40  -4.35  -4.41  -5.12  -4.07  -4.34
195910  -0.55  -0.39   2.42   0.48   1.20   1.06   1.55   3.41   5.10   6.37
195911   0.91   0.88   0.22   1.21   1.13   0.75   2.76   0.95   2.26   4.45
195912   0.78   2.49   1.03   2.46   3.05   1.90   2.11   3.46   2.43   2.21
196001  -1.97  -2.60  -2.73  -2.58  -3.39  -2.34  -5.28  -5.97  -5.71  -6.40
196002  -1.99   0.02  -0.12   1.05   0.99   1.08   1.00   0.94   1.68   4.11
196003  -5.75  -2.49  -2.08  -2.57  -2.67  -1.11  -1.98  -1.57  -1.21  -3.13
196004  -4.31  -4.34  -2.47  -1.88  -1.09  -1.35  -1.54  -1.34  -2.09   0.58
196005   0.96  -0.31   0.43   0.97   2.32   1.14   2.70   2.64   4.12   6.90
196006   0.22   2.96   0.33   1.93   3.29   1.05   1.83   2.74   3.42   3.99
196007  -2.44  -0.41  -2.39  -1.31  -1.13  -1.20  -1.56  -1.75  -1.70  -4.30
196008   4.69   2.39   5.14   3.41   2.51   2.97   3.57   4.48   4.79   4.89
196009  -8.94  -7.25  -5.96  -6.32  -5.04  -5.84  -3.98  -5.36  -4.63  -7.22
196010  -5.37  -3.13  -2.71  -2.13  -1.52  -1.32  -0.96  -0.92  -0.95  -3.65
196011   2.80   3.90   3.10   3.50   3.92   4.58   4.63   6.41   4.79   8.27
196012   3.77   3.21   3.28   4.21   4.12   2.67   4.08   4.04   4.27   4.41
196101  12.75  12.24   9.67   8.57   7.80   5.88   7.06   6.67   6.63   3.62
196102   8.05   5.61   5.26   5.46   4.75   5.69   5.48   5.29   5.44   8.83
196103   5.62   3.28   3.89   4.24   4.87   3.71   4.11   4.59   5.90   7.83
196104  -1.89  -0.20  -0.58  -0.09   1.40   1.71   0.87   2.55   1.72   2.18
196105   6.38   4.44   5.38   4.91   3.31   3.71   3.96   4.59   3.90   1.95
196106  -5.50  -5.24  -4.19  -3.63  -3.93  -2.26  -4.05  -3.91  -3.44  -5.06
196107  -0.89   1.05   2.18   0.75   1.72   1.82   2.16   0.75   0.75   1.58
196108   1.90   0.64   1.32   1.71   1.79   2.82   2.63   1.90   3.02   4.29
196109  -4.49  -4.15  -3.87  -2.59  -1.60  -1.86  -1.70  -2.46  -2.57  -2.81
196110  -0.33  -0.12   1.52   1.57   3.29   2.36   2.66   2.09   2.63   5.85
196111   5.04   3.36   3.45   4.31   3.96   4.58   3.92   5.11   5.67   7.35
196112   1.23   1.19  -0.27   0.34   0.64  -0.70  -1.20  -1.77  -1.17  -1.96
196201   0.65   0.49  -0.22   1.03   0.28  -0.13  -1.12  -1.75  -1.99  -4.04
196202   0.51   0.90   1.64   2.29   2.16   2.62   1.98   1.01   0.59   1.40
196203  -3.32  -1.43  -1.09  -0.65   0.07  -0.59   0.61   1.05  -0.62  -0.44
196204  -8.61  -8.16  -7.83  -7.04  -6.47  -5.50  -5.16  -5.89  -6.68  -6.34
196205 -12.51  -9.90  -9.50  -9.12  -9.27  -7.07  -9.31  -9.45 -10.16 -11.12
196206 -13.99 -11.81  -9.91  -9.25  -7.69  -6.89  -6.68  -6.89  -5.92  -5.51
196207   9.87   6.69   4.38   5.47   4.68   7.48   5.73   5.93   6.87   6.35
196208   5.77   2.76   2.35   2.45   2.29   1.99   3.20   2.23   1.55   3.25
196209  -9.39  -8.21  -7.22  -6.39  -6.07  -5.59  -3.78  -4.38  -3.29  -5.35
196210  -4.43  -1.99  -3.04  -3.37  -1.35   0.16  -1.17  -1.45  -1.58  -2.75
196211  21.53  18.74  15.99  14.26  13.76  12.04  10.94  10.23  10.53  10.12
196212  -5.18  -4.44  -2.86  -1.52  -1.15   0.37   0.87   1.14   1.69   2.02
196301  10.62   8.92   9.79   7.18   7.82   7.30   6.21   6.80   6.23   7.44
196302  -3.94  -2.81  -2.38  -2.14  -1.53  -0.70  -0.08  -0.37  -0.31  -0.08
196303  -0.29   0.98   2.20   1.22   2.58   1.92   3.45   2.07   2.50   3.59
196304   2.32   3.99   3.59   4.43   3.21   4.06   3.85   4.83   4.24   3.70
196305   3.37   3.46   2.60   3.16   2.27   3.11   3.45   3.53   3.45   4.45
196306  -2.26  -1.80  -1.85  -1.81  -1.75  -1.37  -2.10  -0.72  -0.73  -1.61
196307  -2.29  -0.56  -1.78  -0.69  -0.46  -0.31  -1.40  -0.65  -0.60  -0.59
196308   3.14   2.51   3.65   3.40   4.79   4.14   4.35   4.83   5.40   8.18
196309  -1.77  -0.18  -0.94   0.12  -1.22  -0.46  -1.27  -2.22  -1.70  -0.96
196310   0.73   0.22  -0.40  -0.03   0.88   2.56   1.54   2.12   2.96   3.80
196311  -3.61  -1.05  -1.17  -0.88  -1.30  -0.95  -0.43  -0.83  -0.93  -1.77
196312  -4.28  -1.85  -0.61   0.52   1.09   0.34   1.54   2.10   0.97  -0.28
196401   5.17   2.60   3.90   2.53   2.14   2.84   3.13   3.95   1.89   3.54
196402   2.97   2.91   2.22   1.57   2.05   2.50   2.34   2.31   2.65   3.59
196403   0.85   2.66   4.28   2.93   3.15   2.89   3.17   3.12   3.46   3.28
196404   0.71  -1.43   0.98  -0.31   0.96   0.37  -0.35  -0.39   0.16  -0.27
196405  -1.72   0.30   0.84   0.78   0.36   1.59   1.64   1.20   1.50   2.56
196406   0.35   0.50   0.66   1.25   1.32   1.69   1.61   1.18   1.26   1.16
196407   2.99   2.00   3.29   3.24   3.95   3.11   3.00   2.88   3.45   2.36
196408  -0.83  -0.40   0.41   0.37  -0.72  -1.06  -0.35  -1.07  -0.94  -0.86
196409   4.29   2.43   6.15   3.68   2.77   2.44   3.50   4.37   3.62   4.85
196410   0.34   1.24   2.54   1.46   3.15   0.95   2.52   2.69   2.81   2.78
196411  -2.83  -0.46   0.74   0.99   1.65   0.11   1.35  -0.15   0.37   0.06
196412  -3.22  -0.58  -1.39  -0.78  -1.12  -0.70  -0.48  -1.29  -1.20  -1.77
196501  11.15   7.36   6.13   5.07   6.15   6.79   6.56   6.10   6.18   7.83
196502   3.60   3.51   2.96   1.82   3.41   2.88   3.78   2.91   3.42   4.23
196503   1.75   2.51   1.20   1.25  -0.58   0.05   0.58   1.89   1.45   2.34
196504   3.09   3.49   4.05   3.64   3.42   3.85   4.09   5.05   5.42   5.04
196505  -1.64  -1.03  -1.07  -0.84  -1.24  -0.23  -0.33  -0.08  -0.58   0.69
196506  -9.36  -7.12  -6.26  -6.74  -6.08  -7.36  -8.43  -8.69  -9.68 -11.02
196507   0.79   1.28   2.12   2.45   2.78   2.33   2.79   4.15   4.63   5.14
196508   3.77   4.18   3.62   2.82   2.60   3.40   3.83   5.27   5.26   5.78
196509   0.55   1.61   2.28   2.95   2.33   1.68   3.60   4.41   5.02   3.92
196510   6.62   5.45   3.70   4.28   4.32   5.92   5.25   6.06   6.56   8.85
196511   3.75   4.19   1.43   3.03   3.26   5.17   6.31   4.08   6.32   9.34
196512   5.49   4.18   3.14   2.70   4.51   3.59   4.14   4.81   3.30   4.91
196601   8.19   5.76   3.58   4.03   5.46   5.71   5.76   5.62   7.71   9.36
196602   2.80  -0.24   0.76   1.26   1.69   1.90   3.35   2.64   3.71   9.26
196603  -0.58  -1.25  -1.38  -1.11  -1.41  -1.60  -0.49  -1.00  -1.56   0.90
196604   0.01   0.49   1.87   4.01   3.51   4.71   6.26   5.94   7.03   9.61
196605  -8.03  -5.37  -4.96  -5.35  -7.25  -7.40  -8.66  -9.10 -10.80 -15.02
196606  -2.09  -1.32  -1.56  -0.74  -0.44  -1.97  -0.88   0.51   0.45   1.25
196607  -1.89   0.07  -1.19  -1.22  -1.34  -2.19  -1.39  -1.90  -1.66  -2.09
196608 -11.07  -9.18  -7.99  -8.65  -8.68  -9.48 -10.23 -10.70 -10.93 -12.17
196609  -1.59  -1.22  -0.89  -1.63  -0.93  -1.43  -1.83  -2.49  -2.12  -2.56
196610  -2.83   2.37   2.50   1.49   1.44  -0.22  -0.10  -1.56  -3.03  -6.96
196611   4.72   2.89   0.83   1.24   1.69   3.82   2.72   2.56   5.53   9.69
196612   0.28   0.81   1.99   1.86   1.06   1.03   2.37   2.22   1.60   3.42
196701  29.64  20.10  19.53  15.17  16.21  12.73  12.21  12.05  13.83  15.09
196702   6.29   4.04   3.27   2.99   3.95   3.29   3.31   2.61   4.81   5.97
196703   4.76   4.96   5.32   5.93   5.91   4.13   7.38   5.54   6.49   8.88
196704   2.71   2.82   4.59   5.18   2.68   3.57   3.74   5.31   5.17   6.21
196705  -0.80   0.30   0.41  -0.68   0.50  -2.08  -2.08   0.30  -1.48  -1.75
196706   7.91   5.83   4.66   4.98   7.42   5.51   8.42   9.45  11.72  14.68
196707  11.22   9.25   7.85   6.71   6.80   8.17   9.20   8.24   7.22   8.88
196708   2.03   0.81   2.57   1.05   1.59   0.34   1.11   0.76   0.57  -1.37
196709   4.69   4.02   4.90   4.16   6.34   5.58   6.55   6.52   9.70   7.92
196710  -4.29  -3.42  -2.70  -2.75  -2.61  -2.80  -2.49  -1.14  -0.36  -0.02
196711   0.60  -1.04   0.90  -0.51  -0.96   0.61   1.03   0.59  -0.75   0.23
196712   3.72   5.49   4.40   6.05   4.91   7.74   7.75   7.19   9.86  13.70
196801   1.41   0.93   2.90   1.44   3.91   2.66   2.46   2.66   2.37   2.84
196802  -4.91  -2.76  -2.21  -3.63  -4.13  -4.98  -4.79  -5.99  -6.19  -9.42
196803  -2.60  -0.90  -1.62  -0.45  -0.33  -0.96  -1.77  -0.68  -0.41  -0.63
196804  13.94   8.98   9.75  10.12  10.62  11.99  13.03  14.23  16.52  20.15
196805   7.60   4.64   6.92   7.27   6.49   7.70   7.71   8.73  11.05  15.69
196806   1.29   3.30   2.99   2.05   2.42   2.40   2.01   0.47   1.88   0.20
196807  -5.31  -2.76  -2.05  -3.61  -1.66  -2.11  -2.09  -2.54  -3.07  -2.37
196808   0.79   1.37   2.70   2.39   3.56   3.49   3.43   4.06   4.80   6.44
196809   7.99   6.43   6.69   5.06   5.48   4.84   5.46   6.76   7.05   9.69
196810  -0.06   1.38   1.91   0.55   2.00   1.14   2.42   0.27   2.39  -0.94
196811   8.05   6.41   7.54   6.64   9.00   6.58   6.48   5.81   7.19   8.61
196812  -1.77   0.03  -0.26   0.71   0.97   1.46   1.05   0.71   1.13   0.92
196901  -0.95   0.60   0.31  -0.66   0.05  -0.96  -0.37  -0.78   0.07  -0.84
196902 -10.36  -6.75  -6.24  -6.80  -6.89  -7.49  -8.20  -8.74  -8.73 -11.18
196903  -0.65  -0.33   0.50   0.29   0.87   1.20   2.38   3.19   3.38   5.19
196904  -0.97   0.38  -0.27   0.14  -0.43   1.41   0.96   0.58   1.10   0.87
196905  -1.40   0.22  -0.24  -0.26   1.86   0.01  -0.16   0.58   0.01   2.46
196906 -13.69 -12.12 -10.88 -10.57  -9.79  -8.89  -9.87  -9.45 -11.01 -13.77
196907 -12.65 -11.61  -9.54  -7.60  -6.92  -7.34  -7.78  -8.64  -9.27 -10.29
196908   5.00   4.72   4.76   3.31   3.63   3.81   4.19   5.10   6.50   8.42
196909  -4.44  -3.69  -3.24  -2.25  -1.82  -2.80  -1.79  -2.49  -1.14  -0.88
196910  15.34  10.80   9.87   7.31   7.52   7.98   6.67   6.67   7.26   7.09
196911  -9.07  -7.16  -6.79  -4.50  -6.29  -5.99  -4.47  -3.54  -3.19  -2.37
196912 -12.70 -10.15  -8.65  -8.59  -6.68  -5.21  -3.68  -3.85  -1.99  -2.02
197001  -0.76  -0.95  -2.64  -3.99  -4.59  -5.72  -4.63  -6.29  -7.48  -6.34
197002   3.01   3.39   4.47   4.04   4.98   4.86   5.06   5.62   6.09   4.14
197003  -3.73  -2.88  -1.78  -1.18  -0.79  -0.01  -1.10  -0.94  -2.44  -5.21
197004 -20.74 -17.67 -16.74 -15.34 -13.84 -12.24 -10.81 -13.81 -15.46 -17.69
197005  -7.75  -9.44  -8.87  -8.94 -10.62  -9.44  -8.15  -9.69  -9.19  -9.54
197006 -11.97 -10.89  -9.14  -6.49  -6.49  -6.68  -5.58  -4.57  -2.17  -1.94
197007   3.95   4.99   6.62   7.34   6.70   6.85   7.36   6.32   6.28   5.07
197008   9.45   9.15   6.55   6.55   5.49   5.80   4.57   4.34   2.91   3.10
197009  23.85  17.67  14.85  12.08   9.80   7.29   5.63   5.32   5.29   7.67
197010 -13.70 -11.05  -7.80  -4.62  -3.77  -1.44  -1.68  -1.54   0.68  -0.99
197011  -5.25  -1.83  -0.93   0.46   1.96   2.53   3.50   4.20   4.36   4.22
197012   6.47   9.52   8.06   8.73   9.80   9.87   8.64   7.73   7.20   6.83
197101  21.63  18.56  18.88  13.90   9.69  10.23   9.24   7.86   7.00   7.07
197102   8.69   4.56   4.10   3.34   4.01   3.29   2.46   2.18   1.98   5.47
197103   5.43   5.74   5.80   7.12   4.82   5.67   3.09   6.39   5.13   6.69
197104   1.10   2.57   3.54   3.25   2.69   2.06   2.52   3.29   4.16   2.99
197105  -7.17  -5.06  -5.03  -5.12  -5.65  -4.18  -4.21  -5.52  -4.67  -3.62
197106  -4.72  -2.79  -1.75  -2.85  -1.54  -1.56  -1.55  -1.11   0.39   0.86
197107  -6.77  -3.66  -3.54  -4.10  -4.90  -4.77  -5.22  -5.88  -6.79  -7.59
197108   1.34   2.07   1.56   3.54   4.38   5.71   5.71   5.66   5.50   7.59
197109  -3.74  -1.29  -2.26  -0.89  -1.50   0.32  -0.26   0.10   0.50   2.16
197110  -7.44  -6.05  -6.01  -4.49  -4.58  -5.36  -5.79  -5.52  -5.61  -5.53
197111  -5.22  -4.40  -3.94  -2.67  -2.71  -2.58  -2.93  -2.19  -2.36  -2.34
197112  13.65  12.69  11.86  10.87  11.01  11.62  10.77  11.96  10.95  12.82
197201  17.25  11.57  12.04   8.17   9.71   7.50   7.76   8.20   9.09   9.88
197202   4.66   4.23   1.69   2.65   3.00   2.88   6.83   4.73   4.59   6.14
197203  -2.19  -0.51  -0.51   0.64   0.34   0.67   0.33   0.12   0.66   1.34
197204  -3.13   0.36  -1.06   0.36   0.70   0.26   0.94   0.95   1.63   2.70
197205  -4.60  -2.92  -3.21  -2.26  -1.63  -2.06  -1.08  -1.57   0.26   0.78
197206  -5.16  -3.86  -3.29  -3.01  -2.35  -3.03  -3.31  -2.99  -3.00  -2.69
197207  -4.98  -3.31  -2.95  -2.45  -2.57  -2.36  -1.66  -2.92  -1.61  -3.21
197208   0.78   3.86   2.24   3.28   1.78   2.13   0.44   1.07   1.33  -1.39
197209  -5.66  -3.88  -2.61  -2.15  -2.24  -3.75  -2.27  -3.16  -2.64  -2.53
197210  -3.47  -2.69  -0.62  -0.81  -0.13  -1.03   0.45  -1.82  -1.08  -1.17
197211   5.41   5.97   6.44   6.07   5.36   5.11   5.58   3.66   4.96   3.17
197212  -6.46  -4.13  -3.18  -2.18  -1.88  -2.03  -0.32  -0.65   0.08   1.38
197301  -4.54  -3.57  -3.79  -3.42  -3.53  -4.25  -3.70  -4.92  -3.52  -4.17
197302  -8.70  -8.37  -8.09  -6.55  -5.65  -5.47  -6.36  -6.06  -6.77  -8.62
197303  -4.82  -3.72  -2.53  -2.53  -2.89  -2.85  -2.86  -1.83  -1.29   1.08
197304 -11.83  -9.32  -7.56  -7.77  -7.09  -5.58  -3.70  -3.46  -4.24  -5.29
197305 -12.05 -10.96 -10.72 -10.32  -7.11  -7.50  -5.73  -4.11  -3.35  -3.72
197306  -6.51  -5.00  -3.84  -3.05  -3.27  -1.79  -2.67  -0.17  -1.77  -1.39
197307  19.53  16.06  14.31  12.33  13.57   9.32   8.97   6.99   3.99   7.63
197308  -9.35  -7.59  -5.08  -4.91  -4.14  -3.21  -3.19  -2.30  -1.50  -1.17
197309   8.84   9.74   9.26  10.27   9.61  10.19   8.23   7.38   7.77   8.59
197310  -3.43  -1.18  -1.35   0.57   0.94   0.34   0.89   0.33   2.89   4.83
197311 -23.91 -21.53 -20.30 -18.18 -17.12 -15.04 -14.76 -13.84 -15.66 -14.10
197312 -10.90  -9.02  -5.34  -4.69  -2.77  -2.22  -0.86   0.59   4.12   6.64
197401  25.32  19.98  15.18  12.94  12.62  10.83   7.69   7.85   6.45   4.40
197402  -0.81   1.22   1.80   1.09   2.06   0.52   0.46   1.85   0.56  -0.15
197403   2.77   3.10   2.08   1.04   0.83   0.16  -0.51  -0.07  -0.82  -3.17
197404  -6.99  -6.04  -5.35  -4.85  -5.34  -5.33  -4.68  -3.94  -4.28  -5.30
197405  -8.63  -7.76  -7.40  -7.06  -6.53  -6.15  -5.81  -6.75  -6.74  -7.92
197406  -3.86  -4.67  -3.69  -3.19  -3.26  -2.72  -3.44  -2.25  -1.73  -1.44
197407  -7.47  -5.60  -5.03  -5.36  -4.76  -4.34  -5.84  -4.76  -4.68  -4.25
197408 -10.30  -8.90  -9.12  -8.19  -8.17  -8.96  -7.33  -6.74  -7.23  -5.53
197409 -10.32  -8.87  -9.05  -7.31  -8.10  -6.94  -7.43  -6.19  -6.24  -7.89
197410   8.41   8.96   9.55   9.76   8.96   6.97   9.03   8.27   7.99  12.61
197411  -8.23  -6.52  -5.13  -5.51  -4.79  -5.24  -4.29  -3.99  -2.95  -2.60
197412 -10.51 -10.32  -8.29  -7.19  -8.27  -7.03  -6.31  -6.25  -6.31  -5.64
197501  45.85  36.26  36.04  29.94  29.64  26.76  24.58  22.18  23.27  18.16
197502   5.78   7.34   5.65   5.06   5.93   5.09   6.12   5.27   4.54   5.79
197503  14.65  10.43   9.67   5.55   5.07   6.53   5.47   5.70   7.01   7.22
197504   2.44   2.38   3.49   2.06   3.09   2.87   3.49   3.74   5.12   6.68
197505   9.15   7.82   7.77   6.95   6.69   5.94   6.05   7.07   8.41   8.22
197506   9.24   6.50   7.47   6.83   6.89   8.33   6.89   6.82   6.33   6.68
197507   0.64   0.62  -0.28  -0.66  -1.31  -2.95  -3.07  -1.15  -2.85  -1.85
197508  -5.26  -4.61  -3.94  -4.31  -4.51  -5.21  -5.05  -4.92  -5.56  -4.65
197509  -3.88  -3.46  -3.27  -3.82  -3.69  -3.10  -3.16  -4.26  -4.34  -3.46
197510  -0.88   1.20   1.82   2.04   2.38   3.04   2.77   2.50   2.90   2.91
197511   0.89   1.61   1.52   2.54   2.05   2.07   2.97   2.28   2.50   2.81
197512   0.21   0.74  -0.06  -0.67  -0.68  -0.75  -0.32  -1.52  -0.88  -1.77
197601  16.50  17.06  18.00  19.18  19.63  19.60  21.47  19.08  21.51  23.33
197602  15.96  11.26  10.27   8.33   9.10   7.51   9.05   9.35   9.46  10.33
197603   2.27   2.11   1.20   1.08   1.52   2.81   2.62   2.90   2.55   2.30
197604  -0.04  -0.29  -0.45   0.27  -0.71   0.02  -1.14  -0.40  -0.56  -1.97
197605  -0.68  -0.84  -1.41  -1.49  -0.97  -1.04  -2.32  -2.35  -2.75  -4.60
197606   2.03   2.81   3.89   2.91   3.08   2.62   2.87   2.92   3.88   2.74
197607   0.27   0.08   0.54   0.51   0.47   0.34   0.71   0.58  -0.24   0.05
197608  -2.99  -1.57  -1.12  -0.05  -0.63  -0.91  -1.09  -1.30  -1.31  -2.55
197609   0.55   1.46   1.91   1.23   2.69   2.23   2.55   2.31   2.03   2.42
197610  -2.78  -1.05  -1.98  -2.34  -2.18  -1.80  -1.52  -2.52  -1.82  -2.21
197611   1.24   1.28   2.21   3.02   2.86   2.95   3.43   3.18   3.56   3.62
197612  12.55  10.12  10.24   8.90   8.23   9.34   9.52   9.25  10.05   9.61
197701   3.37   3.55   2.55   1.53   3.30   4.29   3.25   3.69   3.79   4.79
197702  -0.12   0.18   0.25   0.20  -0.15  -0.59   1.10  -0.22   0.86   1.07
197703   1.98   0.63   0.81   0.54   1.20   0.42   0.65   1.40   1.45   1.47
197704   0.71   0.04   1.03   0.99   1.56   2.17   2.50   2.65   2.52   2.97
197705  -0.31   0.42  -0.26   0.06   1.54   0.08   1.39   0.51  -0.27   1.06
197706   4.13   5.14   5.00   5.27   5.59   4.93   4.72   5.42   6.31   7.07
197707   2.29   0.23   1.07   0.77   0.81   1.20   0.92   1.04   1.30   1.05
197708  -1.20   0.60  -0.42  -0.04  -0.94  -0.88  -0.86  -0.12  -0.22   0.15
197709   0.20   0.12   1.48   1.11   0.96   0.96   1.80   1.38   2.20   1.79
197710  -2.67  -2.26  -2.42  -2.47  -2.45  -1.37  -1.71  -2.24  -1.77  -2.92
197711   6.68   5.85   5.77   6.32   6.02   6.42   6.31   8.70   8.18   8.67
197712   1.42   0.83   0.82   0.73   2.35   1.68   1.70   1.99   3.02   2.99
197801   1.34  -0.90  -0.71  -2.44  -1.73  -1.25  -2.10  -1.84  -1.85  -1.36
197802   1.48   2.64   1.42   2.43   2.22   2.37   2.31   3.52   3.97   2.67
197803   7.41   5.04   6.82   6.06   5.21   5.80   6.14   7.20   7.17   8.17
197804   9.01   8.30   7.23   8.24   6.33   6.17   6.81   8.53   9.07   9.00
197805   8.44   7.42   5.17   5.54   4.30   4.49   5.94   7.36   7.06   9.59
197806  -0.23   0.70   1.50   0.56   0.69   0.48   0.65   1.46   0.91   1.99
197807   3.67   4.06   4.26   3.22   3.51   5.22   5.75   5.64   5.95   7.08
197808   9.39   6.64   7.01   6.18   7.72   7.86   7.90   8.37  10.44  12.82
197809   1.84   1.33   1.52   0.10   1.82   0.56  -0.25  -0.57   0.28  -0.67
197810 -15.50 -13.18 -11.19 -13.47 -14.23 -16.43 -18.33 -19.16 -22.02 -25.81
197811   0.08   1.83   2.24   2.33   2.93   3.21   4.95   5.00   6.15   8.81
197812   0.29   0.61  -0.37  -0.52   1.15   1.25   1.71   1.55   1.73   2.62
197901  12.32   8.71   9.13   8.36   8.23   6.98   8.58   8.68   9.24  10.31
197902  -1.30  -2.17  -1.42  -1.64  -1.87  -1.65  -1.51  -1.56  -2.08  -3.45
197903   9.03   6.69   6.63   5.97   6.44   7.44   8.80   8.42   9.66   9.99
197904   3.71   1.32   1.86   1.84   3.17   1.70   3.33   2.01   2.91   3.64
197905  -1.43  -0.64  -0.71  -0.80  -0.25   0.08  -2.16  -0.44  -1.16   1.38
197906   5.30   5.03   4.43   5.32   4.92   4.62   6.22   5.64   6.56   5.99
197907   1.92   2.14   2.79   2.99   2.99   2.43   2.79   2.12   1.59   1.62
197908   8.20   8.72   6.55   7.14   6.89   6.67   5.87   7.48   8.55   8.25
197909  -2.42  -1.04  -0.90   0.85  -1.05  -0.62  -0.03   0.03   0.65   2.19
197910 -11.35 -10.24  -9.16  -8.52  -9.27  -8.87  -9.01  -8.48  -9.34  -9.04
197911   2.80   2.83   3.64   4.09   5.19   6.62   7.24   7.91  11.23  13.53
197912   5.41   4.71   3.90   3.69   4.33   5.81   6.78   7.64   8.22  11.83
198001  10.55   8.38   5.47   7.16   6.16   8.46  10.10  11.54  12.52  13.66
198002  -1.27  -2.36  -2.08  -2.98  -2.46  -3.00  -2.30  -0.58   0.06   3.48
198003 -16.47 -12.04 -12.79 -12.76 -13.88 -14.95 -15.24 -18.17 -18.34 -22.37
198004   4.32   6.46   5.48   4.82   3.68   4.31   5.80   5.39   6.52   7.00
198005   8.25   7.35   7.96   7.29   7.28   7.25   6.38   7.38   6.05   6.98
198006   4.33   4.08   4.01   3.88   4.00   3.93   3.74   3.99   5.77   5.36
198007   9.06   7.83   7.90   7.35   7.18   7.79   9.49  10.61  11.61  12.34
198008   7.59   4.52   4.38   4.24   4.65   4.32   6.08   7.81   8.67   9.99
198009   5.72   3.99   3.38   1.85   1.83   3.12   3.63   4.91   5.44   7.37
198010   2.73   1.35   0.38   1.17   1.89   2.84   3.27   4.75   6.83   8.95
198011   1.98   0.72   1.17   2.91   5.49   4.69   6.90   8.05  11.81  14.75
198012  -3.06  -1.37  -0.86  -1.76  -2.51  -2.41  -2.09  -4.64  -3.87  -5.57
198101   3.70   2.99   2.87   3.43   2.37   0.76   0.71  -1.67  -1.31  -4.76
198102   0.63   1.97   0.93   2.35   1.08   1.27   0.95   1.27   0.20  -1.19
198103   6.84   8.13   8.61   7.63   6.82   7.11   6.77   6.42   8.23   8.21
198104   2.92   1.91   3.29   2.57   3.29   2.61   3.88   1.63   3.82   3.71
198105   1.13   1.04   1.38   2.30   2.48   3.09   2.35   2.64   3.46   6.14
198106  -1.11   1.23   1.81   0.87   0.41   0.21  -0.06  -0.21  -1.85  -3.39
198107  -1.86  -1.15  -0.19  -1.69  -0.99  -2.47  -2.01  -2.43  -3.38  -2.59
198108  -9.05  -6.37  -4.51  -4.26  -5.99  -6.17  -6.71  -5.34  -7.47  -9.72
198109 -12.04  -7.68  -7.30  -7.75  -7.47  -6.92  -7.54  -6.64  -6.58  -8.77
198110   5.46   6.40   5.34   5.01   6.63   7.27   6.50   7.23   8.13  10.13
198111  -3.00   2.15   1.73   3.28   3.73   3.35   4.61   3.39   3.17   3.03
198112  -5.50  -3.37  -0.69  -1.25  -1.40   0.20  -1.15  -0.91  -1.71  -1.90
198201  -0.90  -2.40  -2.24  -1.58  -1.08  -1.34  -1.16  -1.41  -1.82  -2.39
198202  -7.61  -4.41  -4.33  -4.42  -3.33  -2.60  -1.61  -2.19  -2.16  -3.05
198203  -2.85  -1.57  -1.30  -1.25  -0.70  -0.14  -0.68   0.47   0.22   0.47
198204   5.64   4.94   6.37   4.85   5.14   6.19   4.55   4.96   5.80   4.97
198205  -4.52  -2.83  -3.73  -2.73  -1.84  -1.54  -2.05  -1.20  -1.06  -0.53
198206  -7.87  -4.80  -2.57  -2.77  -1.67  -1.84  -1.11  -1.34  -0.63  -0.69
198207  -3.55  -2.79  -3.05  -2.37  -2.06  -1.52  -0.30   0.45   0.27   0.35
198208   6.51   8.06   7.98   7.24   6.08   5.63   5.61   6.16   6.22   5.67
198209  -2.19   2.25   3.24   3.44   3.62   4.85   5.13   4.34   4.58   7.56
198210  11.76  13.84  12.19  11.51  13.24  13.11  13.18  12.33  11.68  17.29
198211   4.58   8.84   9.37  11.79  11.32   9.33   9.67   9.56   9.22  13.89
198212   2.77   2.37   2.49   1.36   1.35   2.39   2.06   1.96   1.99   3.25
198301  19.41  13.11  10.85   8.73   7.42   6.24   5.98   7.40   8.47  10.89
198302   0.42   5.78   6.13   5.88   6.73   4.67   6.63   6.76   7.86   7.70
198303   5.06   5.02   4.98   5.24   3.82   5.12   5.04   5.88   5.03   6.17
198304   8.08   8.20   7.28   6.62   6.41   6.97   6.99   8.10   7.96  11.00
198305  14.83   8.65   7.63   6.86   6.46   7.14   6.80   6.88   8.36   9.67
198306   5.61   4.63   3.35   4.28   3.89   4.60   3.52   5.83   5.75   4.98
198307   0.74  -0.02  -0.12  -1.36  -0.73  -1.61  -1.95  -1.77  -3.35  -4.32
198308  -3.40  -0.20  -0.87  -1.60  -1.84  -2.16  -2.24  -3.87  -4.59  -5.81
198309  -1.59   0.67   0.94   0.80   2.23   1.58   1.57   0.39   1.53  -0.39
198310  -6.23  -1.80  -2.26  -3.03  -5.36  -4.93  -3.70  -5.55  -5.30  -9.02
198311   0.11   1.56   3.13   4.19   3.81   3.72   4.37   3.25   3.56   4.16
198312  -4.20  -2.61  -0.70  -1.55  -0.42  -0.59  -1.25  -1.60   0.07  -3.09
198401   2.55   2.31  -0.11  -0.43   1.18   0.99  -1.10  -0.16  -0.97  -1.13
198402  -6.27  -4.80  -5.07  -5.22  -4.52  -4.25  -4.07  -4.57  -4.99  -6.98
198403  -0.80  -0.33   0.09   1.15   2.05   0.62   2.17   1.03   1.07   2.49
198404  -4.42  -1.62  -2.17  -1.63  -0.88  -0.18  -0.68  -1.21  -0.08  -1.13
198405  -6.79  -5.16  -4.39  -4.42  -4.19  -4.96  -4.43  -4.01  -3.92  -4.07
198406  -0.42   1.71   2.91   1.39   2.62   2.74   2.28   2.11   2.48   2.04
198407  -8.12  -6.33  -4.54  -4.34  -3.35  -3.42  -2.88  -2.62  -1.44  -1.87
198408   8.81  10.85  10.44   9.91  10.27  10.12   9.31   7.63   7.13   7.67
198409  -2.44  -0.16  -1.21  -1.40   0.17   1.26   1.39   2.49   1.61   1.79
198410  -5.94  -3.86  -1.40  -1.43  -0.78  -1.27   0.42   0.86   1.09   0.35
198411  -6.66  -4.17  -3.40  -1.19  -2.24  -0.79  -1.15  -0.76  -1.43  -2.57
198412  -0.71  -2.13   0.53   0.89   1.34   2.37   1.94   2.00   2.60   1.75
198501  18.04  14.63  12.45  11.51  10.86  10.33   9.77   8.16   7.83   7.99
198502   7.40   4.73   2.80   3.61   3.62   2.82   2.73   3.50   3.17   5.10
198503  -2.36  -2.23  -0.50  -1.17  -0.35  -0.16  -0.57  -0.37   0.28  -0.11
198504  -3.83  -1.62  -1.45  -1.25  -1.19  -0.38   0.27   0.84   0.58   0.64
198505  -0.78   1.53   1.59   3.67   3.43   3.87   3.45   4.24   4.68   4.61
198506  -2.79  -0.68  -0.56   0.71   1.72   2.20   2.12   2.24   2.81   2.74
198507   2.07   2.33   1.79   2.61   2.30   1.72   0.87   0.56   0.87   1.53
198508  -1.29  -0.19  -0.42  -0.71  -0.32  -0.12  -0.12   0.29   1.02  -0.08
198509  -8.23  -6.45  -5.30  -4.49  -3.78  -4.07  -4.37  -4.16  -4.26  -5.74
198510  -2.50   1.96   1.64   1.21   3.54   3.20   3.93   3.81   4.82   5.22
198511   4.33   4.34   4.60   4.55   5.11   5.76   6.34   5.82   7.24   7.10
198512   1.09   3.65   3.05   3.13   3.49   4.53   3.70   4.56   2.68   3.69
198601   5.18   3.54   1.85   2.77   3.50   1.84   2.51   4.03   4.66   5.78
198602   4.74   4.31   6.58   5.65   5.92   7.60   7.39   7.22   8.80   7.44
198603   3.55   3.95   4.65   5.24   5.29   4.84   6.79   5.11   5.35   5.57
198604   1.25   1.33   1.87   2.42   1.28   0.14   0.76   1.53   0.97   2.23
198605   2.66   3.45   2.24   3.18   3.56   3.04   3.67   4.89   4.99   6.48
198606  -0.64   0.03  -0.97  -0.08   1.36   1.40   1.80   1.90   3.12   2.56
198607  -9.23  -7.67  -7.09  -6.08  -5.56  -5.36  -6.64  -6.42  -6.59  -9.12
198608   1.35   2.38   2.72   2.91   3.81   2.70   1.46   3.27   1.45   0.97
198609  -5.11  -5.33  -4.54  -4.30  -5.50  -6.12  -7.12  -7.40  -7.08  -8.90
198610  -0.09   1.44   1.99   2.37   2.87   3.37   3.92   3.69   3.37   4.64
198611  -1.91  -1.32  -0.02   0.61   0.42   0.54   0.49  -0.34   0.53  -1.58
198612  -5.04  -3.58  -3.03  -2.36  -2.99  -2.49  -3.19  -2.54  -4.20  -3.91
198701  14.94  10.37  10.02  10.74  10.31  10.22  11.74  11.17  10.72  12.65
198702   9.58   7.56   7.02   6.64   6.80   6.77   5.81   5.16   6.69   7.96
198703   3.43   2.79   2.52   2.62   2.68   2.58   2.27   3.82   2.65   4.74
198704  -2.31  -2.46  -2.15  -3.06  -2.77  -2.75  -2.46  -1.39  -1.44   0.33
198705   1.39  -0.18  -0.57   0.14  -0.01  -0.17   0.89  -0.13   0.04   0.82
198706   1.51   1.84   2.09   3.63   4.39   3.36   3.27   3.13   2.60   2.07
198707   2.88   3.07   2.36   3.03   3.56   4.91   3.68   3.97   4.98   6.68
198708   0.01   2.72   2.07   3.29   2.09   3.24   1.88   2.50   1.65   1.02
198709  13.33  -1.66  -0.69  -0.81  -2.15  -0.09  -0.96  -2.14  -1.33  -0.69
198710 -28.48 -24.37 -24.86 -25.92 -25.82 -27.46 -27.62 -28.55 -29.78 -32.31
198711  -9.53  -5.01  -4.23  -3.13  -4.04  -4.54  -3.23  -4.21  -4.11  -5.33
198712  -3.13   2.06   3.95   3.84   4.27   4.55   4.32   7.53   6.22   7.07
198801  13.72   9.32   9.42   8.18   7.23   6.79   5.84   4.94   3.43   4.11
198802   6.07   7.98   8.12   5.57   7.26   5.89   5.62   5.77   6.61   6.03
198803   4.69   2.93   3.43   3.41   3.43   1.96   3.47   2.63   4.02   4.45
198804   1.17   0.71   0.76   1.53   1.79   1.06   1.16   1.36   1.48   2.87
198805  -2.62  -2.28  -2.21  -1.63  -1.34  -1.31  -1.32  -0.27  -1.06  -1.22
198806   3.75   5.50   6.00   5.59   3.78   5.45   5.26   5.88   5.10   5.42
198807   1.02  -0.91  -0.34  -0.71  -0.46  -0.33  -0.91   0.83  -0.06  -0.26
198808  -3.18  -2.30  -2.03  -2.18  -1.71  -1.29  -2.30  -1.76  -2.28  -2.10
198809   0.91   1.98   1.96   2.07   2.50   2.55   2.20   2.39   2.30   2.55
198810  -5.00  -0.92  -0.79  -1.12  -0.52  -0.49   0.24   0.59   0.72  -0.17
198811  -6.18  -4.50  -2.36  -2.83  -3.45  -3.70  -2.40  -3.59  -3.00  -3.57
198812   0.69   1.41   2.22   2.95   1.82   2.11   2.56   3.20   3.67   3.89
198901   8.91   5.50   5.18   5.05   4.93   4.94   4.98   6.34   6.65   6.34
198902  -0.18   0.75   1.16   1.00   0.07  -0.03   0.83   0.35  -0.03   1.27
198903  -0.22   1.36   1.75   0.82   1.97   2.82   1.51   2.93   2.62   3.17
198904   2.10   2.84   2.67   3.07   3.37   3.56   4.41   3.81   4.31   4.53
198905   1.33   3.01   2.98   3.72   2.84   2.80   3.69   3.79   3.40   3.80
198906  -2.25  -1.31  -1.30   0.28  -0.51   0.24   0.27  -0.65  -1.23  -2.22
198907  -0.07   1.67   2.03   3.48   3.79   3.87   3.89   4.55   5.62   5.93
198908  -0.16   1.18   2.23   2.15   3.49   2.88   1.97   3.31   2.67   3.52
198909  -0.44   0.18  -0.22  -0.06  -0.16   1.13   0.25   0.78   1.17   1.43
198910  -6.65  -5.88  -4.02  -3.55  -5.20  -4.61  -3.66  -4.57  -4.17  -5.54
198911  -4.65  -2.72  -1.14   0.41  -0.24   0.51   1.83   0.41   0.75   0.50
198912  -5.86  -1.39  -2.03  -0.91  -0.20   0.04   0.73   0.05   1.44  -0.41
199001  -1.94  -5.08  -4.25  -4.68  -5.34  -5.44  -6.18  -6.92  -7.45  -7.83
199002   2.79   1.54   0.46   0.74   1.11   2.23   1.75   1.77   2.00   3.42
199003   2.25   1.36   2.51   2.01   0.77   2.67   2.92   3.07   2.69   4.41
199004  -2.85  -2.99  -1.96  -3.13  -2.86  -2.82  -3.71  -3.82  -2.35  -1.24
199005   2.91   2.97   3.13   3.15   3.05   4.67   6.17   6.68   7.18   8.33
199006  -1.21   1.24  -0.13  -0.46   0.61   0.64   1.01   0.11   0.91   1.94
199007  -4.32  -4.22  -4.16  -3.76  -2.11  -2.15  -2.53  -1.86  -1.52  -3.08
199008 -13.07 -12.58 -10.30 -10.67  -9.50  -9.81 -10.89 -10.20 -11.83 -12.46
199009 -11.21  -9.73  -8.97  -8.49  -7.37  -5.40  -4.38  -6.01  -7.28  -8.24
199010 -10.69  -8.73  -6.02  -6.92  -4.78  -4.08  -3.16  -2.80  -3.60  -4.75
199011   4.77   3.75   3.63   5.34   4.00   3.93   4.99   3.00   4.70   2.86
199012  -8.00  -1.49   0.04   0.15   2.95   2.14   0.86   2.74   1.80   1.33
199101  19.92  11.70   8.87   8.24   6.38   4.88   5.16   3.92   6.20   8.24
199102  27.04  14.85  10.85   8.85   9.65  10.44   8.10   8.33  11.18  12.09
199103  13.35   8.79   5.24   5.14   5.32   5.32   4.97   6.82   9.03  10.41
199104   5.50   4.01   3.63   1.78   4.32   2.42   1.92   1.51   1.86   1.38
199105   0.15   2.75   4.22   3.51   3.44   3.73   2.29   3.69   3.75   5.97
199106  -4.65  -2.33  -2.94  -3.55  -2.79  -2.81  -3.03  -2.99  -3.65  -4.87
199107   3.50   1.97   1.83   3.26   2.56   2.39   3.59   3.39   4.85   6.55
199108   2.39   3.11   1.96   2.15   2.49   2.40   3.09   3.63   4.57   4.81
199109  -0.10   0.53   0.19   1.12   1.17   0.28  -0.78   0.86   1.33   3.00
199110   2.46   0.29   1.31   2.00   0.95   1.04   2.33   2.27   2.75   5.73
199111  -2.97  -2.74  -1.20  -0.29  -0.57  -2.12  -2.25  -2.94  -1.96  -4.02
199112  -3.16   1.47   2.58   3.45   3.19   4.33   5.85   6.32   6.34   9.18
199201  36.54  16.53  12.01  11.78   9.28   7.79  10.00  10.71  12.81  16.97
199202  10.02   7.09   5.58   5.62   4.41   4.89   3.98   4.41   6.24   3.82
199203  -0.64   1.20  -0.13  -0.83  -0.08  -0.24  -1.38  -1.72  -0.82  -2.85
199204  -5.08  -3.25  -2.82  -0.48  -1.36  -1.12  -2.02  -2.51  -2.59  -5.66
199205   0.79   1.76   0.04   0.42   1.35   0.79  -0.07   1.78   0.76  -0.42
199206  -5.54  -5.29  -4.46  -2.80  -2.83  -3.12  -2.66  -2.82  -3.13  -4.66
199207  -0.10   1.87   3.16   1.96   2.12   3.09   4.00   3.04   3.32   3.76
199208  -3.78  -2.69  -3.14  -2.07  -0.19  -1.89  -1.63  -1.67  -2.52  -3.66
199209  -0.39   0.86   0.19   0.42   1.61   1.77   2.32   1.55   2.84   2.36
199210   0.97   0.91   0.84   1.24   2.43   2.60   1.98   2.54   1.85   3.82
199211   7.95   7.40   6.88   5.90   5.58   6.02   6.17   5.40   7.95   8.36
199212   2.52   3.20   1.98   2.16   3.23   2.80   5.03   3.64   6.00   6.61
199301  10.79   4.38   4.96   5.30   4.03   4.79   7.58   6.66   6.27   9.86
199302  -3.53  -1.45  -1.49  -1.59  -0.28   0.07   1.76   0.04  -0.17  -0.62
199303   0.73   2.53   2.81   0.92   2.65   3.58   3.04   3.99   4.00   5.28
199304  -1.84  -1.94  -2.52  -1.66  -1.88  -2.51  -0.71  -1.56  -1.75  -1.36
199305   5.20   4.21   5.33   3.88   3.84   2.51   2.94   3.92   2.32   4.53
199306   0.08  -0.10   0.84   2.59   0.44   2.04   1.46   2.57   2.51   2.61
199307   0.93  -0.32   0.27   1.37   0.88   2.19   1.88   3.05   1.87   2.04
199308   3.09   2.37   4.15   3.12   2.12   4.24   3.52   4.07   5.01   6.67
199309   1.65   1.52   0.88   2.37   3.54   2.49   3.53   3.16   3.59   5.09
199310   6.92   5.08   4.46   3.71   1.50   3.30   3.37   2.93   3.78   4.42
199311  -2.42  -1.25  -1.85  -1.56  -1.89  -2.25  -2.77  -2.05  -3.16  -3.63
199312  -2.07   0.42   0.40   2.73   2.14   1.71   2.77   1.79   2.40   2.33
199401   7.98   4.65   4.32   3.91   2.99   3.64   3.57   3.97   5.46   4.99
199402  -0.25  -0.16  -0.73  -1.02  -0.14  -0.73  -0.16  -0.66  -0.87  -1.53
199403  -3.50  -3.48  -3.85  -3.54  -3.90  -3.85  -4.15  -4.03  -4.24  -6.34
199404  -5.32  -1.38  -0.09  -1.40  -0.86   0.20   0.56   0.25  -0.54  -0.27
199405   0.17   0.61  -0.37   0.20  -0.16   0.73   0.77  -0.39   0.47  -2.27
199406  -4.90  -2.47  -2.92  -2.07  -1.25  -0.60  -2.41  -1.52  -1.28  -3.87
199407  -0.09   1.36   1.01   1.54   1.52   1.46   1.76   2.11   2.45   2.28
199408   4.27   4.09   2.78   3.64   3.75   3.34   4.21   4.24   4.12   4.19
199409   1.46   0.49  -0.21  -0.57   0.47  -0.20   0.51   0.56   0.98   2.67
199410  -1.56  -0.29  -0.40  -0.04   0.22  -0.15   0.29   0.11   1.07   2.22
199411  -6.61  -4.26  -3.32  -3.38  -3.63  -4.12  -3.57  -3.38  -3.68  -3.49
199412  -6.21  -2.80  -0.86  -0.41   0.36   0.66   0.20   0.71   1.35   1.54
199501   7.90   3.73   3.29   3.18   1.39   1.64   1.97   2.24   1.34   1.31
199502   1.99   3.62   3.25   3.40   3.31   3.48   2.99   3.80   3.56   4.03
199503   1.28   0.78   2.24   2.65   1.38   1.42   1.70   1.91   2.20   2.94
199504   2.02   2.60   1.73   1.81   2.33   2.44   2.65   2.51   2.38   3.54
199505   0.65   1.65   4.14   2.10   2.29   2.11   2.35   2.24   2.00   2.45
199506   6.59   3.82   4.20   4.15   3.43   4.23   3.17   4.87   5.59   8.95
199507   6.94   3.57   4.03   3.69   5.42   4.25   4.57   5.45   5.87   9.24
199508   3.81   2.93   1.79   4.66   4.40   3.74   4.00   3.76   4.66   3.36
199509   2.30   2.20   2.06   2.76   2.97   3.36   2.71   3.06   3.08   4.00
199510  -9.77  -5.61  -3.09  -2.68  -1.77  -2.05  -2.47  -3.38  -2.18  -4.61
199511  -3.69   1.11   2.31   2.45   2.47   3.67   3.01   2.59   3.09   3.13
199512  -2.89  -0.36   1.04   1.14   2.25   1.97   2.38   2.32   2.61   2.37
199601   7.38   3.04   2.98   2.04   2.12   2.38   1.59   1.76   1.05   1.43
199602   5.70   3.37   2.98   3.42   2.28   2.37   3.27   2.58   3.87   4.08
199603   4.25   4.13   2.86   2.67   1.98   1.14   1.89   2.87   2.22   2.77
199604   8.19   5.62   5.34   4.54   2.70   3.55   3.00   4.29   5.70  10.02
199605   9.70   8.51   5.81   5.31   3.82   5.22   4.05   5.26   7.24   8.49
199606  -5.32  -2.22  -2.53  -0.69  -1.75  -1.89  -1.23  -1.85  -3.10  -5.84
199607 -11.08  -7.44  -6.17  -5.77  -5.39  -6.05  -5.83  -6.30  -6.73 -12.58
199608   3.91   4.30   3.66   4.09   3.59   3.60   4.18   4.80   4.08   6.69
199609   1.00   1.74   2.83   3.14   2.94   2.71   3.42   3.48   3.04   6.16
199610  -6.69  -3.59  -1.12   0.43   0.61   0.59   0.61  -0.60  -0.33  -2.24
199611   1.68   3.05   2.27   3.38   4.40   3.15   4.23   4.05   2.58   1.12
199612  -7.27  -0.38   1.00   1.66   1.49   2.18   0.88   2.13   0.79   1.16
199701  12.41   6.94   4.83   5.76   4.70   3.89   4.08   4.15   4.38   5.77
199702  -2.95  -1.56  -0.21   0.73   1.38   0.73   1.25   0.23  -0.95  -5.57
199703  -8.69  -4.50  -4.17  -3.65  -2.82  -2.77  -3.41  -3.74  -4.43  -4.65
199704  -5.62  -2.78  -2.41  -1.60   0.35   0.01  -0.04  -0.53  -0.22  -0.51
199705  10.96   9.97   8.27   8.14   6.81   7.60   7.37   8.57   7.27   9.58
199706   1.42   4.06   4.87   4.92   5.04   4.84   5.89   6.45   6.34   6.37
199707   3.08   4.01   5.81   5.17   4.50   6.46   5.85   6.06   7.36   9.03
199708   5.10   3.19   2.31   2.09   1.91   2.15   4.82   1.65   2.35   3.97
199709   8.49   9.56   7.81   8.29   7.67   8.33   7.67   8.28   9.46   9.98
199710  -2.86  -1.83  -1.75  -1.50  -1.85  -1.14  -0.47  -1.04  -0.81  -4.56
199711  -7.10  -1.69  -0.48  -0.39   0.30   0.80   0.67   1.08  -0.10  -1.52
199712 -13.32  -5.09  -2.45  -0.70   0.10   1.08   2.56   2.42   2.11  -0.44
199801   7.27   1.13  -0.41   0.56  -0.66  -0.96  -0.13  -0.49  -1.37  -0.38
199802   6.20   6.04   6.49   7.16   6.08   6.65   6.18   6.35   7.04   6.28
199803   4.11   4.97   4.27   4.88   4.90   6.18   4.73   5.24   4.48   6.46
199804   4.34   3.25   1.66   2.19   2.48   1.35   1.98   1.29   1.79   2.66
199805  -6.40  -3.84  -3.60  -3.80  -3.61  -3.36  -3.50  -3.55  -4.10  -5.12
199806  -7.84  -5.05  -4.83  -2.99  -1.62  -1.94  -0.43   0.09  -0.36   1.55
199807  -6.56  -7.94  -7.29  -4.19  -6.26  -5.37  -5.38  -4.74  -4.14  -4.72
199808 -24.97 -22.00 -19.95 -18.26 -16.86 -17.12 -15.51 -16.78 -17.66 -22.07
199809   2.17   2.61   5.69   2.91   3.53   3.97   3.09   4.30   5.28   8.53
199810   7.62   3.06   3.34   3.56   3.08   2.39   2.56   2.26   2.18   2.32
199811  10.85   9.41   7.19   8.24   6.63   5.20   6.81   6.23   4.95  10.26
199812  -1.87   1.17   1.00   0.31   3.08   3.71   4.15   4.05   6.97   9.33
199901  18.27  10.14   6.26   3.07   1.90   1.58   0.19   1.08   2.79   8.88
199902  -4.41  -5.57  -4.89  -4.47  -5.05  -3.96  -4.63  -5.88  -6.03  -4.65
199903   0.82  -3.28  -3.13  -2.28  -2.10  -3.54  -3.35  -0.48  -2.99   3.52
199904  11.49  11.70  10.47   8.30   7.05   6.92   5.91   6.08   6.76   9.23
199905   6.99   6.47   4.58   4.23   2.94   2.58   2.09   2.47   2.10   0.55
199906   1.04   4.29   3.62   2.47   3.82   3.23   4.53   4.53   6.55   6.88
199907   2.68  -0.24   1.26   1.17  -0.14   0.02   1.63   0.19   1.06   0.78
199908  -6.26  -3.72  -2.94  -3.19  -2.71  -2.80  -3.59  -2.83  -1.95  -1.24
199909  -4.19  -4.17  -3.34  -2.49  -2.75  -2.58  -2.72  -0.33  -1.31   2.56
199910  -5.64  -3.02  -1.44  -0.95   0.96   1.11   0.29   0.47  -0.03   4.54
199911  13.66   7.85   5.49   4.44   2.98   4.52   4.48   9.22   8.21  18.28
199912  10.61   5.65   4.02   1.94   4.41   2.22   3.07   8.80   9.32  20.97
200001  17.08   6.53   2.36   1.16   2.63   3.85   0.83   1.01   7.98   7.49
200002  15.36   7.79   3.33   4.76   4.33   4.27   7.28  13.49  18.68  31.54
200003  -0.65   2.27   2.73   1.49   2.36   2.86   3.16   3.85   3.49  -3.62
200004 -11.20  -5.76  -3.13  -1.26  -0.68  -3.06  -3.44  -4.13  -8.22 -17.41
200005  -8.81  -4.28  -3.21  -1.79  -1.31  -1.97  -1.70  -2.82  -4.00 -12.08
200006   2.82   3.06   1.18   1.41   1.45   1.36   2.04   4.95   8.17  22.26
200007  -2.44  -1.80  -0.45   0.32  -0.33   0.70   2.05   0.95  -1.75  -6.85
200008   4.78   4.57   3.84   3.71   4.03   3.72   4.31   5.90   8.19  14.08
200009 -12.27  -5.79  -4.03  -0.52  -0.27   0.37  -1.46  -0.53  -2.62  -4.76
200010 -11.19  -7.23  -3.72  -2.50  -3.32  -1.88  -4.21  -4.34  -4.42  -9.43
200011 -22.89 -11.62  -7.68  -6.56  -3.86  -6.52  -7.31  -8.15  -9.58 -19.21
200012 -14.57  -4.34  -0.77   2.66   3.16   1.98   3.26   2.93   4.93   4.60
200101  64.74  30.58  19.85  13.47  11.78   8.24   8.21   5.81   5.48   4.75
200102 -16.45  -6.76  -3.73  -1.99  -1.96  -1.58  -1.71  -2.89  -1.93  -5.61
200103 -15.30  -6.41  -2.24  -1.13  -2.91  -0.76  -1.75  -2.10  -1.43  -1.33
200104  11.60   8.92   5.44   5.91   4.13   4.83   4.33   3.75   5.01   8.66
200105   7.29   7.44   6.94   5.71   6.98   5.56   6.68   6.08   5.49   7.76
200106  -1.88   2.27   3.00   2.69   2.09   3.28   2.58   2.84   2.83   3.08
200107  -9.18  -2.65  -0.91  -1.12   0.30   1.09   1.17   1.73   1.16   0.42
200108  -8.69  -4.08  -2.28  -0.95  -1.38  -0.12  -0.65  -1.22  -1.53  -2.78
200109 -20.37 -15.49 -13.54 -10.79  -8.92  -8.55  -8.73  -8.55  -7.66  -8.59
200110  16.77   5.84   5.09   6.01   4.45   3.92   2.23   4.19   2.94   7.66
200111  15.49   6.63   7.22   5.75   6.95   4.90   6.04   5.15   4.24   5.92
200112   9.34   6.37   7.10   4.85   6.04   5.12   4.17   5.77   5.37   5.95
200201   1.20  -0.97   0.98   0.92   2.82   1.00   1.75   3.14   3.73   3.13
200202 -12.43  -4.18  -1.88  -0.68  -1.56   0.39   0.86  -1.00   0.14  -2.10
200203  10.07   9.66   7.69   7.21   7.55   6.83   6.67   6.33   7.70   8.75
200204  -5.85  -1.62  -0.96  -0.46   1.29   2.08   2.55   3.36   3.02   0.81
200205  -8.16  -4.31  -1.63  -1.14  -0.46  -1.75   1.15  -1.42   0.21   0.38
200206 -15.90  -9.34  -6.64  -6.74  -4.65  -3.24  -3.29  -2.59  -1.77  -3.40
200207 -16.09 -12.48 -13.37 -10.45 -10.86  -9.62  -8.09  -8.99  -8.87 -12.43
200208   0.95  -1.41  -1.79   0.70   0.15   0.44   1.36   1.09   0.64   0.40
200209 -16.51 -11.93  -9.07  -8.79  -6.98  -5.77  -4.81  -5.12  -4.57  -4.94
200210  10.76   3.08   2.84   3.17   1.22   3.79   3.73   2.83   3.82   5.10
200211  32.73  16.24  13.93   7.99   6.38   4.35   5.62   4.22   3.27   5.23
200212 -14.53  -8.59  -4.34  -5.64  -3.26  -0.93  -1.17  -0.30   0.01  -0.40
200301   2.28  -0.41  -1.85  -1.39  -2.22  -0.24   0.00  -0.19  -0.05   1.05
200302  -4.88  -3.76  -3.53  -2.57  -2.99  -1.45  -1.52  -0.66  -0.67  -1.11
200303   2.58  -0.09  -0.63  -0.33  -0.52   0.86   1.30   0.18   2.23   2.88
200304  18.72  13.10  10.77  11.21   7.88   6.74   7.34   6.58   5.54   7.20
200305  32.85  20.96  14.06  12.40  10.28  10.25   8.93   8.51   7.89   8.02
200306  11.17   5.34   5.08   3.66   4.17   4.13   2.40   4.23   3.57   4.18
200307   8.06   8.61   6.88   6.16   7.10   5.93   4.46   6.13   5.76   9.44
200308   5.73   4.83   5.36   4.21   3.80   3.98   5.04   5.80   5.42   5.95
200309   7.67   1.79   0.12   0.10   1.29   0.83   0.32   1.59   1.89   3.05
200310   7.84   6.07   6.69   6.98   6.80   7.13   8.58   8.51   8.39  11.87
200311   2.12   3.52   2.94   3.57   3.83   3.33   3.49   4.15   4.13   5.09
200312   6.56   5.59   4.13   4.79   4.08   2.70   2.77   1.93   3.40   1.96
200401   9.56   4.61   4.73   4.73   5.84   3.98   4.32   6.35   8.36  10.66
200402   0.80   1.68   1.55   2.46   1.26   1.31   0.70   1.81   0.90   0.16
200403   0.08  -0.36   1.20   1.22   1.05   0.19   0.55   0.92   1.04  -1.15
200404  -1.59  -1.34  -1.53  -1.05  -0.86  -3.05  -2.70  -4.13  -3.27  -6.76
200405  -2.63   0.15   0.32   0.78   0.59   0.19   0.01   0.61  -0.13   0.82
200406   1.37   1.25   3.00   2.58   2.46   3.31   2.46   3.51   4.13   2.82
200407  -9.45  -5.54  -4.14  -5.37  -4.24  -3.41  -5.48  -6.26  -6.58  -8.75
200408  -2.59   0.21  -0.27  -0.52  -0.79   0.23  -1.46  -1.18  -1.47  -3.10
200409   2.76   2.36   3.43   2.97   3.51   3.82   4.14   4.60   6.10   7.40
200410   2.24   1.79   1.81   2.58   1.84   2.19   1.49   3.01   1.82   0.71
200411  12.44   7.39   6.95   6.23   6.68   7.26   8.49   8.31   8.61   9.62
200412  10.77   6.25   5.06   3.83   4.35   4.07   3.26   2.86   3.90   6.10
200501  -7.92  -2.74  -3.02  -2.38  -2.35  -2.45  -1.67  -1.64  -1.45  -2.33
200502  -1.09  -0.26   0.11   1.30   1.76   0.67   2.48   1.51   3.00   4.61
200503  -5.84  -2.36  -1.20  -2.42  -1.69  -1.87  -1.84  -1.51  -2.36  -2.97
200504  -9.38  -5.24  -4.59  -3.59  -4.05  -3.46  -3.97  -4.58  -4.66  -7.70
200505   5.50   4.04   4.15   4.26   3.98   4.95   4.27   4.86   5.56   7.73
200506   3.44   3.12   2.61   2.99   3.05   2.54   3.92   3.69   3.20   4.65
200507   8.42   6.74   5.19   5.51   4.60   5.17   6.07   5.61   5.82   8.54
200508  -2.77  -0.76  -1.08  -1.13  -1.84  -0.96  -0.36  -0.72   0.15   0.26
200509  -0.21  -0.16  -0.36  -0.17   0.58   2.09   0.83   0.77   1.87   2.72
200510  -5.45  -3.29  -1.91  -1.79  -1.44  -2.97  -2.24  -2.35  -3.18  -4.74
200511   3.54   3.15   3.02   3.21   4.13   3.87   3.46   4.77   2.94   5.40
200512   1.58   0.94   0.02  -0.04   0.48   0.52   0.39   0.96   1.78   0.86
200601  10.25   7.33   6.57   5.72   6.15   4.42   5.81   6.71   8.67  12.92
200602   0.97  -0.11   0.81   0.96   1.43   0.67   1.86   1.33  -0.41  -1.62
200603   4.59   3.66   3.28   2.84   3.51   4.23   4.63   4.30   5.14   5.59
200604   0.70   0.16   0.69   0.41   0.27  -0.31   0.61   1.09   1.15   1.18
200605  -5.94  -2.64  -3.83  -3.17  -3.00  -3.30  -4.15  -4.69  -5.66  -8.80
200606  -2.37  -1.84  -1.24  -0.54   0.45   0.02   0.62  -0.35  -0.08  -1.76
200607  -5.86  -3.52  -1.98  -2.19  -1.44  -1.96  -1.77  -3.17  -2.86  -5.75
200608   3.17   3.80   2.62   2.03   2.09   1.54   2.14   2.25   1.40   0.88
200609  -0.13   1.44   1.45   1.39   0.75   0.89   1.96   0.93   1.44   0.69
200610   6.08   5.10   4.35   5.37   3.76   4.27   4.66   3.20   5.55   5.82
200611   2.97   2.96   3.45   2.21   2.56   1.70   2.41   2.80   1.80   2.71
200612   1.04   0.40   1.14   0.38   1.40   1.69   1.92   1.42   0.46   2.98
200701   3.33   2.56   1.79   0.72   2.11   2.19   1.86   2.63   1.81   3.77
200702   0.27   1.23   0.05  -0.14   0.59   0.47   1.06  -0.42  -0.63  -0.78
200703  -2.08  -0.13   0.38   0.54   0.92   1.10   0.90   1.46   2.30   2.05
200704   2.94   2.13   1.45   1.77   2.68   1.90   2.02   2.86   3.27   3.24
200705   0.96   2.92   2.10   3.17   2.68   3.64   2.84   3.61   2.27   2.34
200706  -0.95  -0.69  -0.86  -0.37  -0.25  -1.20  -0.47  -0.88  -0.94  -0.51
200707  -5.81  -5.66  -5.75  -5.11  -4.56  -5.04  -4.15  -3.19  -3.74  -4.75
200708  -3.53   0.22   0.64  -0.38  -0.76  -0.08  -0.86  -1.26   0.58  -0.50
200709  -0.73   0.28   1.02   0.26   0.71   1.61   2.34   2.22   3.78   5.29
200710  -1.84  -1.49  -0.19   0.53   1.20   2.24   2.12   3.64   3.94   4.84
200711 -14.03  -8.70  -7.01  -5.51  -6.13  -6.09  -6.36  -6.62  -7.72  -8.20
200712  -4.30  -2.76  -3.02  -1.75  -1.60  -1.35   0.03   0.64   0.94   1.79
200801   0.21  -3.14  -4.43  -3.98  -4.45  -5.29  -8.03  -6.43  -9.51 -11.54
200802  -4.69  -4.07  -3.94  -3.56  -2.29  -1.77  -1.50  -1.09  -0.12  -0.83
200803  -6.51  -3.14  -3.14  -0.23  -0.87   1.26  -1.02  -1.46  -1.39  -2.28
200804  -0.33   2.44   1.47   3.23   2.77   2.65   2.66   2.43   3.33   6.33
200805   3.34   2.13   3.12   2.45   4.21   4.32   2.79   2.63   2.97   6.94
200806 -13.81 -12.33 -12.79 -10.06  -9.19  -8.39  -7.98  -6.46  -4.62  -1.81
200807  -0.83   1.27   2.02   2.55   2.35   3.37   1.88   2.65   0.79  -4.46
200808   2.90   1.93   3.37   3.36   2.97   3.47   3.18   1.84   1.00  -1.00
200809 -15.87 -12.05  -9.99  -8.94  -8.48  -8.52  -7.11  -7.29 -10.52 -16.37
200810 -24.79 -25.24 -22.68 -21.11 -20.61 -17.50 -17.51 -15.54 -18.59 -20.99
200811 -20.08 -17.27 -16.34 -13.84 -12.32 -12.67 -10.06  -8.38  -9.38 -11.28
200812   2.85   3.72   4.40   2.96   3.15   2.35   3.69   2.81   2.80   2.21
200901   7.36   0.46  -4.98  -6.56  -6.00  -6.89  -6.65  -6.18  -7.97  -9.81
200902 -14.09 -14.67 -10.02 -12.34 -10.63  -9.70  -9.35 -10.10 -10.60 -10.83
200903  29.87  18.80  11.55  10.71  10.68   9.10   6.53   9.06   5.74   6.88
200904  45.93  36.57  30.92  22.40  19.88  14.77  13.90  12.32   7.51   5.46
200905  25.28  17.30  13.19  10.01   5.14   6.79   5.18   4.79   4.12   2.86
200906   5.65   3.37   3.96   2.40   1.88   2.39   3.41   3.02   4.51   3.44
200907   9.23  11.04  10.91  11.46   8.61   9.83   5.48   6.99   7.85   6.66
200908  25.38  11.68   5.27   7.35   4.70   2.87   2.82   1.08   1.82   0.56
200909  14.85   7.99   7.68   6.11   6.15   5.10   5.14   4.98   3.47   5.49
200910 -10.79  -7.13  -4.85  -4.55  -5.41  -4.11  -4.62  -4.39  -4.60  -8.43
200911  -2.23   1.81   2.00   2.06   1.41   3.47   2.14   1.78   5.08   4.66
200912   5.95   5.60   7.04   4.56   5.42   6.49   7.04   7.62   6.78   8.51
201001   4.13  -0.11  -1.00  -2.42  -1.24  -1.33  -2.21  -2.00  -2.60  -1.91
201002   0.88   2.82   2.95   3.49   3.47   4.51   3.91   5.37   6.85   7.11
201003   7.38   6.46   8.02   7.91   8.26   7.67   7.73   7.87   9.21  10.08
201004  11.10   6.41   6.43   5.17   5.25   5.52   6.45   7.37   8.25  12.11
201005 -10.69  -7.10  -6.45  -6.72  -7.11  -7.10  -7.63  -7.14  -7.77 -10.18
201006 -10.29  -5.69  -5.97  -4.68  -6.04  -5.96  -7.79  -7.88  -8.66 -10.88
201007   4.82   5.22   6.07   5.74   6.10   5.63   5.82   6.00   7.03   8.00
201008  -7.78  -7.24  -5.73  -6.79  -5.45  -6.18  -6.15  -4.64  -5.88  -8.47
201009  10.33  10.91  10.98   9.84  10.70  10.08   9.92  11.64  11.32  13.87
201010   3.71   4.14   3.92   3.56   3.45   3.58   4.68   5.27   4.53   4.81
201011  -1.94   2.89   3.79   1.90   2.10   3.33   3.26   3.00   3.56   4.29
201012  11.50   9.69   7.08   8.00   7.27   8.49   7.81   7.27   7.52   7.30
201101   4.45   1.75   0.94   2.19   0.85   1.84   0.86   1.02   1.79   1.33
201102   2.25   3.77   3.95   5.20   3.95   3.72   5.53   5.47   4.51   5.63
201103  -2.91   0.83   0.80   2.38   1.69   2.26   1.48   3.30   3.87   3.03
201104  -0.50   1.46   2.22   1.67   2.33   2.80   2.33   2.42   2.30   1.05
201105  -3.54  -2.45  -1.21  -1.70  -0.51  -1.44  -1.63  -1.77  -1.35  -2.61
201106  -5.77  -2.19  -2.01  -1.81  -1.45  -1.93  -0.94  -2.22  -1.19  -1.59
201107  -1.30  -2.81  -2.31  -2.83  -2.37  -3.48  -3.30  -2.94  -1.77  -3.35
201108 -12.45 -10.26  -6.79  -7.03  -6.21  -7.14  -7.81  -8.63  -9.59 -10.72
201109 -12.85  -8.82  -7.59  -8.89  -9.40  -9.29  -9.04 -10.37 -12.99 -15.22
201110   9.99  10.89  13.10  11.37  11.63  13.33  11.80  11.53  13.44  15.89
201111  -6.98  -3.58  -1.80  -1.27  -0.93   1.07  -0.44   0.35   1.02  -0.74
201112  -2.75  -0.27   1.12   1.08   0.00   1.40   0.88   0.58   0.95  -0.15
201201  16.78  11.77  10.29   8.48   8.46   6.16   5.46   5.60   3.74   6.54
201202   5.60   5.29   3.76   3.00   3.65   3.84   2.87   2.87   2.85   4.09
201203   2.30   2.93   2.66   3.85   3.07   3.55   3.52   3.17   3.38   4.02
201204  -3.92  -4.34  -0.71  -1.29  -2.06  -0.75  -0.71   0.39   1.27   0.64
201205 -11.73  -9.11  -7.88  -6.96  -5.29  -5.26  -5.49  -4.61  -5.15  -5.42
201206   1.52   5.11   4.39   4.07   4.50   3.48   4.07   3.47   4.06   4.13
201207  -2.22  -2.68  -2.77  -0.93  -1.16   0.05   0.31  -0.51   0.27   0.25
201208   2.59   4.15   3.58   2.84   3.24   2.29   2.02   2.11   1.98   3.84
201209   5.78   4.21   4.37   3.13   2.42   3.63   3.40   3.25   2.70   3.56
201210  -4.32  -2.42  -1.65  -2.19  -1.35  -1.51  -0.81  -1.47  -0.45  -0.12
201211  -0.28   0.18   0.81   1.21   0.37   0.41  -0.32   0.75   0.23   0.42
201212   3.15   3.28   2.98   2.80   3.48   2.53   2.44   2.10   1.62   1.47
201301   9.85   6.08   6.34   7.35   5.20   6.82   6.96   6.99   7.06   9.04
201302  -0.43  -0.16   1.24   1.88   1.47   1.50   2.00   1.14   1.80   1.35
201303   2.66   2.64   4.00   4.43   3.88   4.55   4.63   5.55   5.00   7.68
201304  -1.85  -0.10   0.24  -0.27  -0.38   0.61   0.23   0.50   0.18   1.42
201305   6.43   5.76   6.17   3.56   4.07   3.00   4.12   4.04   4.45   4.09
201306  -2.54   0.14   0.90   0.06   0.60  -0.02   1.44   0.87   0.35  -0.70
201307  10.82   5.99   5.68   6.51   7.09   6.91   7.52   6.60   7.07   8.75


